667 300
RX_83366 0.023672149 -0.033122048 -0.007631194 -0.02406863 0.029368222 0.029059075 0.022168037 -0.01718782 0.0080657005 -0.018369585 0.02794037 0.0029404312 0.03465481 0.022931062 0.00029129535 0.009829506 -0.03460435 -0.014547078 0.017746609 0.014227368 -0.019560806 0.009037275 -0.0132048335 -0.0054093264 -0.019303579 0.0166101 0.028727785 0.038984343 -0.016517768 0.026699059 0.034238353 0.011309132 -0.022649517 0.0352401 0.0036624372 -0.029520884 0.013223667 0.008577656 -0.019611254 -0.030162178 -0.00563173 0.035149187 0.004169088 -0.032980625 -0.02889508 -0.0234062 -0.035376184 0.0030048937 -0.023664977 -0.026446983 0.026452549 0.029731318 0.032699734 -0.0062311143 -0.019882755 -0.012599507 -0.027981054 -0.0073279478 -0.019571269 -0.01711258 0.014810231 0.003616564 -0.013190936 -0.013382196 -0.019372111 0.0043105073 -0.022836272 -0.012716107 -0.03479022 0.038525783 0.015688844 0.037870556 0.018284842 -0.024883833 -0.009066932 -0.022602994 0.018149342 0.014963839 -0.02288019 0.0066591725 0.0034698285 -0.016206376 -0.02636029 -0.03411895 0.02203644 -0.03872344 -0.0045247413 -0.017007867 0.008125026 0.018048506 0.008143287 -0.021626249 0.010286719 -0.011565872 0.0062385686 0.017764583 -0.016853005 0.01338863 0.007564176 0.0050166436 -0.03162186 0.0057840943 0.010429133 0.02442576 -0.008042052 -0.039091375 -0.039234836 0.009670947 -0.033169877 0.029614963 -0.022911418 -0.024618354 -0.013900336 0.0017278269 -0.0007899925 0.00015433505 -0.028532142 -0.01309444 -0.026294481 -0.012531102 -0.038248923 -0.018656978 -0.032408312 0.031967342 0.006310772 0.026930004 -0.01696042 -0.038909353 -0.019909065 0.0035010204 0.01582196 0.008524567 -0.00055044144 -0.009910131 -0.030540494 0.01633919 0.018862259 0.01886003 0.026127793 -0.006581731 -0.015960082 0.000104539096 0.026080161 -0.005642988 -0.021300852 -0.021549061 -0.0054457746 0.013942279 -0.017266925 0.022028431 0.03815203 -0.019793574 0.0063694306 0.03782682 -0.027666459 -0.015938533 -0.03759732 -0.006013561 -0.01695848 -0.023650195 0.034718506 -0.036613375 -0.01742805 0.012799311 -0.025943477 -0.023926016 0.01941602 0.012648586 -0.005327057 0.033209555 -0.012161266 -0.03617849 -0.016372519 -0.028143102 -0.02157339 -0.029736834 0.015616588 0.03489033 0.020310558 -0.015015984 0.0094860345 -0.003482096 -0.02836771 0.031474166 0.032571584 -0.03804834 -0.01496556 0.012505759 0.0136387795 0.032301694 -0.01700787 -0.03629855 -0.012427015 0.03300824 -0.027524944 -0.0354552 -0.022133023 0.035780236 -0.03901339 0.0034409873 -0.017487708 0.00566338 0.0005042255 0.033569463 0.029774271 0.0264493 -0.010610368 -0.021750385 -0.038428307 -0.03847798 -0.018840434 0.006831214 -0.026282873 -0.033775274 0.0002251938 0.0011933111 0.012176797 -0.034476962 -0.029684335 -0.009860499 -0.002223216 0.037594423 -0.02487004 -0.022622136 0.034229428 0.030982032 -0.004406821 -0.015814608 -0.033237416 -0.034138545 0.0057150684 -0.028499397 -0.0091274325 0.019197822 -0.008827513 0.012728568 -0.022173818 -0.028586583 0.015488099 0.032048717 -0.018170455 -0.028585281 0.003893882 -0.01783102 0.005625967 -0.034089036 0.006910123 -0.021201398 -0.032675043 -0.025302315 0.018484704 0.035569914 0.008091245 -0.015189197 -0.010795658 0.01348928 0.037778646 0.024240702 0.00040477887 2.0932406e-05 0.012142021 -0.026887868 -0.03066677 0.026325047 -0.0059467517 0.025578931 0.008980006 -0.032699794 -0.010335101 -0.006006591 0.016791612 -0.0066921934 0.021148369 0.005517021 -0.032279156 -0.012168141 -0.030319398 -0.009856407 -0.01666028 0.013486706 -0.004715547 -0.027918428 0.028336085 -0.038786437 -0.017572422 0.0017967559 0.012854822 -0.008238558 0.0371537 0.0029425211 0.02879025 -0.020120861 0.039250627 -0.014431018 -0.029461004 0.034418985 0.03868021 0.03354571 -0.029230895 -0.03787403
RX_XXXXX66 0.02243993 0.024726935 -0.012028489 0.02257808 0.00437703 0.008077931 0.033588953 -0.017361356 0.021026094 -0.014762569 0.0071807727 -0.0021130592 0.028311096 0.011005752 0.000913661 0.0071526654 0.027148023 -0.009556439 0.026561491 -0.035012186 0.00036332384 0.011821181 -0.0018385649 -0.011886539 -0.03476989 0.019029189 -0.02375244 -0.03260675 0.013241529 -0.010997806 0.009870406 -0.0123261865 -0.037005056 -0.027950028 -0.0067034066 0.021355849 0.00018642098 0.029920667 0.035239376 0.028070815 -0.031144593 -0.039528236 0.018848144 0.010904886 -0.013509268 -0.0071245246 -0.035408095 -0.004983254 0.029404014 0.005377859 -0.036624327 0.020491216 -0.025902614 -0.0076718703 -0.02270385 -0.022123234 0.0044018775 0.00079843774 -0.011966633 -0.0068025477 0.028901272 0.027696505 -0.033069376 -0.033337567 0.031125568 0.026733495 0.007391263 -0.005679313 0.013641201 -0.029565584 0.0012867711 -0.0023759753 -0.020807954 0.037213944 -0.004300747 0.03158708 -0.0020881295 -0.023856537 -0.02189267 0.02162904 0.03481613 0.018312864 -0.008730495 -0.016854726 0.024128929 -0.004008986 0.004455235 0.03857924 -0.015096571 -0.020355575 0.018340271 0.024032108 -0.029411348 0.024940602 0.031494744 -0.028896244 -0.010063866 -0.003630668 -0.021963919 0.018901478 -0.026206907 -0.009550905 0.03466268 0.011200905 -0.007569678 -0.0057863407 0.032272108 -0.00442579 -0.009271642 0.015590198 -0.01950186 0.006948497 0.0014728718 -0.029371703 0.0021479614 0.03692025 0.031567566 0.033550337 -0.025972474 0.01308538 0.031611837 0.034112602 0.035113923 -0.007491071 -0.033191774 -0.014868945 0.021533307 -0.03941552 -0.024534617 -0.03897305 0.0027550086 0.020037603 0.024249084 0.017914675 -0.020511147 -0.028170954 -0.0130176395 0.014632091 0.01579548 0.022754237 0.017605029 0.03306768 0.00028734654 -0.035793215 -0.0008065142 0.012576502 -0.014628697 -0.033319227 -0.030570127 0.0065648444 -0.014640477 0.0064235404 0.016986828 0.009965073 -0.033847213 -0.0026675276 0.01181379 -0.036540374 0.022825025 0.0019114874 0.01513882 0.02489958 0.0061781406 0.012289889 0.004620433 -0.0109746605 -0.0305582 0.008696035 0.026416257 0.0027424581 0.012086961 0.014393225 -0.0042357296 -0.037216723 -0.030213472 -0.037442107 -0.0015307628 0.0034033768 0.019995835 -0.024217801 -0.02142486 -0.030983187 -0.03780266 -0.0050140694 -0.031458244 0.009307351 -0.021767119 0.005789116 -0.015865277 0.02047788 0.003991034 -0.019813364 -0.019202096 0.0008394718 -0.020262612 -0.0103722755 0.02554021 0.02915334 0.020015217 0.005086899 0.027847223 0.032670572 -0.004214585 -0.034425482 -0.013532704 -0.02673838 0.00761218 0.026419073 -0.028814852 0.038253807 0.008829512 0.015061963 -0.035177764 -0.02360613 0.0072482973 -0.0037337206 0.03447395 -0.014841061 -0.016659694 -0.027459241 0.035517827 0.036744125 -0.031270187 -0.00210559 0.007033944 -0.025034117 0.02691184 0.032667868 0.016986672 -0.022422366 0.00786642 0.025376715 -0.005946625 -0.00907474 0.0036515929 -0.02872667 -0.008995485 0.022204977 -0.022981236 0.015290514 -0.022508312 0.017529484 0.00066956505 -0.03103873 0.025687255 -0.0043493323 -0.029769309 -0.02527634 0.03079623 -0.014345778 0.018119495 0.026918218 0.028950445 0.016977664 0.022452772 -0.013015943 0.035870366 0.00210049 0.029373094 0.014227904 -0.03544645 -0.026943192 -0.035068255 0.00032445043 0.015029643 0.003908515 -0.03739634 0.029743224 -0.02101221 -0.037264764 0.03510794 -0.00044163316 -0.017083744 0.033255063 -0.0050028823 -0.009673769 0.018977992 0.021664564 -0.027981114 0.037809536 -0.023841456 0.032695077 -0.022965921 0.03196147 -0.0084924735 0.025197193 0.011796158 0.033055328 -0.03420213 0.02962429 -0.027438622 -0.032968983 0.022353433 0.03775897 -0.0032817386 0.03925194 0.033604816 -0.009157728 -0.0011705384 0.019139659
RX_9143 -0.038077645 0.023231313 -0.025286444 -0.032561336 -0.022558162 0.0035761483 -0.0024009757 0.012200195 0.038370594 -0.006936848 0.039422482 0.02499824 -0.037276156 0.031690955 0.032480575 -0.01962084 0.0064718537 0.02908644 0.033835717 -0.020502841 -0.03688254 0.006017197 -0.0029436909 0.026203811 0.039210953 0.012376063 -0.035575677 0.031394415 -0.0064101964 0.0023348667 -0.009428874 -0.028716348 -0.034430534 -0.019704463 -0.020050822 0.007103406 -0.03628405 0.033030406 0.00013010576 0.003928963 0.024416849 0.012342535 0.0006507188 0.007570643 0.01997722 -0.017004043 -0.0015218034 0.022682987 -0.039582603 -0.008002911 0.006392151 0.011665612 0.023899697 -0.036946844 0.015338611 -0.03436454 -0.017653108 0.01576816 -0.02479916 0.03704284 0.016277336 0.01811722 0.004556656 0.03295932 0.03752721 0.024724923 0.020098247 -0.031997472 0.032131664 0.0011462383 -0.021753019 -0.018704213 -0.035410695 -0.029302496 -0.0052266456 -0.032891754 0.035090856 0.025384761 0.036512017 -0.024820304 -0.03274883 -0.008148268 -0.039429557 -0.027400782 -0.005774457 0.033950925 -0.014402479 0.001262404 0.003348995 0.037542813 0.039432347 0.025233038 0.00509993 -0.037907805 -0.0038741902 0.027657062 -0.02549744 0.0009785444 0.015909165 -0.03276825 0.032803886 -0.034619078 -0.028688919 0.008819837 -0.035731137 -0.01421573 0.03666336 0.016055632 -0.015641622 0.020075515 0.0069141276 0.0019236244 0.0043666326 0.029859662 -0.0028517693 0.018212903 -0.0055491067 0.02960226 0.005257368 -0.028260708 -0.023323514 0.025567882 0.021871287 0.0028055832 -0.01695468 0.019383434 0.016056925 0.032986 -0.015285788 -0.021015858 -0.0113273915 0.011745319 -0.00080701336 0.035817817 0.0326735 -0.0010961927 -0.016946645 -0.035602108 -0.018153341 0.023967393 0.03155925 0.03277564 0.034982607 -0.032315787 -0.034252286 0.034116633 -0.034152083 -0.021611443 0.0028208308 0.00053880364 -0.0076851174 0.018630855 0.00073536485 -0.008978045 0.02992668 -0.00061643124 0.013405547 0.0044132583 0.0024992041 -0.030968409 -0.008304976 -0.008240998 0.021198548 0.028610423 0.021308884 0.015282169 0.0015709996 -0.014999386 0.027593888 0.032760598 -0.02745441 -0.005927 -0.034988683 0.0018512681 0.00089251995 -0.029787794 -0.013846459 -0.039049756 -0.00084444135 0.036015235 -0.027746283 -0.02660168 0.02336298 -0.018499667 0.008091692 -0.019260239 -0.013732037 -0.010161618 0.00012233108 0.0388603 0.03679827 0.031692892 -0.036448848 0.005666565 0.029735066 0.02372457 -0.013128193 0.0023702122 0.024690762 0.011421911 -0.035989128 0.03720382 -0.019865755 -0.026978433 -0.019399289 0.02722264 0.0082904175 0.038533896 0.02091875 -0.017451238 -0.037608717 0.008399982 -0.0036561638 0.036055 -0.019522462 0.012790218 -0.03790346 -0.013952432 0.014269635 -0.029864816 0.032509856 -0.036913976 -0.028367463 0.028201744 0.024056375 -0.00020699203 0.027392782 0.001172524 -7.3075294e-05 -0.014660751 0.009142477 -0.0020632707 -0.018366672 -0.010143565 0.027866721 0.020227142 -0.013843734 -0.021972172 0.009973291 0.00537714 -0.028186973 -0.009272495 -0.03538283 -0.030598281 -0.036541767 -0.033593822 0.017841306 0.020641536 0.0026001222 0.013196826 -0.0018046461 -0.0032383427 0.03220597 -0.037792232 0.016413484 0.004996784 -0.028588057 0.018348224 0.018798597 0.0026063249 0.025025688 0.005388923 0.021597575 0.0053318664 -0.012584638 0.0031816624 0.008315306 0.02955255 -0.004366711 0.0042973123 0.013370752 -0.020030105 -0.0233548 0.008484717 -0.0328632 -0.0028550997 -0.034794115 -0.023480294 -0.014201483 -0.0018400624 0.0029328018 -0.02829209 0.019547127 -0.009042403 0.022510562 0.019776091 0.021401167 -0.002523657 -0.0075256005 0.02663584 -0.030860074 -0.020817904 -0.01236042 -0.012065792 -0.011026444 0.00071574 -0.019804006 -0.016499672 0.005489573 0.038846545
RX_6579 -0.01462215 0.0015304014 0.022835776 0.023525506 0.036287174 -0.030662436 0.025572434 -0.006900601 0.033881955 -0.016799165 0.029361457 0.036509514 0.03755088 -0.028652012 -0.03793359 -0.014236726 -0.009614173 0.03931845 0.024151497 -0.0189667 -0.018213203 -0.019535823 -0.0042435043 -0.03094117 0.005168464 -0.02122709 0.021367438 0.005908206 0.0028373152 0.011013877 0.026661344 0.008649342 0.018917073 -0.021657536 -0.0005730726 -0.0033227578 0.03467825 0.017406445 -0.0009130128 -0.03385499 0.034918226 0.001308281 -0.025083417 0.018859386 0.012329761 0.028078139 -0.017956397 -0.010636484 -0.0017442964 0.00054201856 0.019226305 0.016242664 -0.024109568 -0.038555454 0.00027019158 0.01942553 -0.02247549 -0.03458089 0.018080726 -0.022035081 -0.027132865 -0.019423211 -0.008155402 -0.030645961 -0.015780598 -0.027865158 0.029043287 0.00039535388 0.027606308 0.018261168 -0.019085083 -0.029806323 -0.017661763 -0.023366436 -0.021168886 -0.0042944252 0.00043525547 -0.026903372 -0.03545672 -0.012920929 -0.022442088 -0.027564215 0.011262458 0.027972445 -0.039137013 -0.015296221 0.023921572 -0.029190516 -0.0110054575 -0.019883182 0.034578517 0.00849491 -0.03924907 -0.010253878 -0.009314476 -0.038005527 0.03539303 0.03555064 -0.003287889 0.0162055 0.011876538 0.037319317 -0.0147918 -0.029496625 -0.01920674 0.007851385 0.034823522 -0.039454687 -0.0010153502 0.016070012 0.037281282 0.0021085106 -0.025651004 0.0015054457 0.011096355 -0.03926142 -0.012009917 0.033927716 0.01869917 0.0027207881 -0.024564505 -0.0090353 -0.002119951 0.02396734 0.013035737 0.0092750825 -0.029542092 -0.026941177 0.02228086 0.0004966669 -0.002033744 0.012986708 -0.030384168 -0.029215563 0.036375493 0.029051617 0.005415842 -0.022526758 -0.001981195 -0.03704842 0.019715242 -0.027982082 -0.0032886416 -0.013888467 -0.02225757 -0.020059474 -0.007487159 0.03422541 0.038954534 0.0027008653 -0.010511957 -0.009052575 -0.004967749 -0.009035964 0.007907454 -0.019282214 0.022341419 -0.035721183 0.031795174 0.012665842 -0.010005303 -0.03336479 0.034820795 0.03206382 -0.035631984 -0.018935272 -0.032009285 0.014390327 -0.025629085 0.0026934184 -0.010419326 -0.0054693706 0.014353164 0.03169179 0.005517006 -0.02738605 -0.0005877465 -0.016798584 -0.033936877 0.015134599 0.034459263 -0.0300274 0.036199167 0.009274859 -0.03580906 0.03954581 0.010646056 0.027619801 -0.015066527 -0.0227177 -0.029420491 -0.027506508 0.015890945 0.009675972 0.010896802 -0.0033019744 -0.027136914 -0.011018915 0.030374765 -0.013679599 0.009517781 0.01334298 0.0037809834 0.031971186 0.0048825443 -0.011404527 0.014704708 -0.012693578 -0.024672767 0.0035731196 0.020251658 -0.029948894 0.036284395 0.037679464 -0.0042045824 -0.03702133 0.013616048 0.03444533 0.0008941069 0.006573152 -0.033532534 0.031681262 -0.023077842 0.016621504 0.036001988 -0.012552438 -0.038172673 -0.016652647 0.008497886 -0.03899187 -0.038783904 -0.01896048 -0.020359995 0.023230769 0.038326286 -0.029111035 0.036665216 -0.03153966 -0.03648557 0.021449767 0.017376732 0.022578869 0.008724175 0.003125947 -0.006402243 0.021346878 0.01220971 0.009539656 -0.032081373 -0.010572534 -0.0030885339 0.017685752 -0.005938705 -0.0004203692 0.017120421 0.014051691 -0.025648106 -0.012924306 0.039128117 -0.012080528 -0.0077282637 0.01240233 -0.019128595 -0.039236713 0.01621538 0.021887597 0.023264006 -0.0009466484 -0.02455564 0.029320657 0.0040663853 -0.011131359 0.0058052167 -0.0011081658 0.018452536 0.036071472 -0.006447267 -0.013506692 0.016116716 0.03253311 0.012777876 0.039325364 0.022869118 -0.0074717104 -0.0053303503 0.03340765 -0.015249362 0.0333789 0.038875245 -0.029075123 0.02643308 -0.03314215 0.017546602 -0.03545271 -0.008447267 -0.007454276 -0.03816881 0.028582111 -0.036501765 -0.00066585466
RX_1362 0.033948444 0.027652092 0.0012429021 0.022324447 0.020678286 0.034808718 -0.021294275 -0.02129176 0.026946984 -0.0027310662 0.033035174 0.02641119 0.013750184 0.011474483 0.026639305 0.00037677214 -0.026928212 -0.031326428 -0.0027775392 -0.031663388 0.036113225 -0.002680879 0.017607622 -0.031857543 -0.0152842775 0.03418815 0.011807267 0.026169397 0.028294474 0.033943042 -0.0065490827 -0.017743459 -0.013437875 -0.012818897 -0.016564457 0.027773 0.0071843676 -0.03957035 -0.031254172 -0.00077416 -0.02818611 0.004151795 0.038930044 0.036755696 -0.03256903 0.00604254 -0.014617341 0.013241161 0.03237398 -0.014373388 0.0037255585 0.023338154 -0.01465063 -0.011345908 0.035483584 0.03959754 -0.03411948 0.0023110732 -0.015952762 -0.028066278 -0.029018972 0.027490914 -0.00083751604 -0.014796134 -0.021999823 -0.035201803 0.016862776 0.005453065 -0.011315305 0.029098831 0.015671112 0.013016488 0.010539338 0.020053428 0.00089867413 0.020799734 -0.026437115 -0.03438846 0.034934305 0.025440104 0.036775924 -0.023760585 0.024782248 0.026005901 0.0385867 -0.0035436302 0.026407786 -0.020926164 0.039680116 -0.02205771 0.029249988 -0.018433765 0.00559688 0.0007622503 0.031197995 0.017827418 0.013086572 0.016405333 -0.012629306 -0.037110705 0.0078212395 -0.026938785 0.022935778 0.010550894 0.006372083 0.03137826 0.013509534 -0.009390131 -0.036545623 0.030705832 0.0042578354 -0.021768859 0.015727434 0.027690798 -0.011290675 0.0033394955 -0.023067342 -0.020210037 -0.031191222 -0.038847934 0.022877857 -0.031415094 -0.03799258 0.035419352 0.039011538 -0.031127267 0.00743128 0.020821918 0.024938285 -0.0015984587 0.024053134 0.004729446 0.0027419738 -0.015985774 -0.0013561435 -0.0076239854 -0.022616379 0.02531705 -0.007567495 0.0153022185 -0.0012457371 0.0022549257 -0.01909585 0.014195118 -0.03402424 0.01729288 0.036278427 -0.03586791 -0.026490804 -0.006525837 0.00013031438 -0.0075587034 -0.01528178 0.015843514 0.0358881 0.020445652 -0.027978016 0.03915429 0.017138157 0.0062210187 -0.029050145 -0.014840104 -0.02763658 -0.008547077 -0.031849913 -0.01463978 0.03682643 -0.026431741 -0.019557765 -0.031186644 -0.030194122 0.023493014 -0.03521345 0.00043828413 0.018412363 -0.011259617 0.036857866 0.032092966 0.021860536 -0.03014334 0.03919922 -0.037704986 -0.012143863 0.016124353 0.03891983 -0.0056547187 0.0039188564 0.028229848 0.033876933 -0.021060012 -0.012206815 0.009024322 -0.02012973 -0.033474002 0.008955669 0.0058547035 -0.031032119 -0.014843203 0.011150043 -0.0035428628 0.029754378 -0.031867895 0.036158025 -0.0041360557 -0.03616731 0.0113913715 -0.0032193996 -0.022655312 0.013617072 -0.025266035 -0.009889051 0.020174578 -0.02291402 0.017280642 -0.0007376671 -0.010780362 0.005024545 0.010118142 -0.028964587 0.035932504 -0.0067462213 -0.03299046 0.03122668 -0.033605494 -0.0187342 0.027509265 0.025496066 0.034660056 -0.009484144 0.029529177 0.0022064932 -0.015646257 -0.023978349 -0.026987981 -0.0123951975 0.0037348568 -0.008436378 -0.015533196 0.013920382 -0.024775874 0.014135875 -0.023872925 -0.022323642 -0.002726622 -0.034399584 -0.021624472 0.032216102 -0.011194492 -0.0055575147 0.011339519 0.028993592 -0.023487326 0.0039976537 -0.034488533 -0.02503229 -0.015139028 -0.024172055 -0.020565953 -0.024899615 -0.015165752 -0.033102594 0.037334725 -0.007971637 -0.032625377 -0.008139756 -0.008103415 0.028418995 0.017261926 -0.027205689 0.012377512 -0.039622944 0.0060848817 0.024015963 -0.030560106 0.03870868 0.0036697164 0.02872435 -0.008101828 0.038371064 0.0071408674 0.009947233 0.015512228 -0.015038334 0.029715858 0.02414731 -0.016104283 -0.024186032 -0.028204955 -0.010881754 -0.036438216 0.031203233 0.009136766 -0.020997014 0.03910464 0.021547716 0.032656826 -0.024212915 -0.039237946 0.039301947 -0.021593627
RX_301542 -0.029796824 0.006829586 -0.022529898 0.009421255 0.028724968 -0.03440324 0.026176251 -0.01580952 -0.02026028 0.022190616 -0.022870217 0.010076594 -0.036888484 0.024435759 -0.003304392 -0.0061219223 0.026576854 -0.0077299923 0.031168804 -0.007683959 -0.015506169 0.03887076 0.027783297 -0.0057144724 -0.0063212104 0.014900517 0.035931155 0.027226366 -0.02345624 0.03200624 0.016257502 -0.034565013 -0.025145564 0.03238549 -0.0051600747 0.02911935 0.036274612 0.026711099 -0.01966707 0.025529735 -0.007104479 -0.01205245 0.023594886 -0.013123598 -0.029180855 -0.019756848 0.005704213 0.010486163 0.026868857 0.03532499 -0.033976067 0.03523589 0.035466336 -0.011100851 -0.02753583 0.0063816607 -0.007953402 -0.017631501 -0.0021802 0.005340539 0.026382074 -0.018099284 -0.035903264 -0.014762161 -0.036315948 -0.0068879016 0.01582573 -0.0044059753 -0.0045042783 -0.027675688 0.023451082 -0.007708017 -0.02770607 0.00215099 0.02566614 0.0021492168 -0.0034905337 -0.015578842 0.017878786 0.019427836 -0.036348443 0.03780841 -0.022695754 0.0244001 -0.02471432 -0.037155602 -0.024327405 0.026292004 -0.014421256 -0.004044879 0.005278386 -0.030629575 0.0352813 -0.028502136 -0.007256724 0.017253757 0.018798724 0.031171665 0.021036327 0.0084263235 -0.012291603 0.030784562 -0.02091982 0.029243894 -0.021812368 -0.037255112 -0.00048112124 0.025550537 -0.0095746275 -0.025349729 -0.014690924 -0.032185134 -0.038748153 0.031202756 -0.00763816 -0.03547882 0.003281273 -0.03760323 0.011694863 -0.015264878 0.03239341 0.0034787133 -0.00043565407 0.027367823 0.0018249042 -0.031329453 -0.03764373 0.016678266 0.03521824 0.007572327 -0.021805849 0.0057782866 0.011145644 0.0127921365 0.039040476 -0.0087925885 -0.01100117 -0.035911176 0.03506981 -0.025062991 -0.028559912 -0.034077987 -0.035887778 -0.034412533 -0.022961875 -0.02272177 0.012389455 0.020318124 -0.007630095 0.00027696788 0.027468994 0.017567296 -0.005233351 0.005906515 0.022919074 -0.0092736 -0.01631651 -0.005181417 0.015464738 -0.033477534 -0.0006996095 -0.006601546 -0.008547546 -0.026687574 -0.034722034 -0.013897071 -0.03851797 -0.025410775 0.001302056 0.002827976 -0.03241831 -0.0023037195 -0.004498549 -0.017428514 -0.035566553 0.024227768 -0.035564642 -0.019207451 0.016765568 0.0022771247 0.016722288 0.019555155 0.020508416 -0.0297249 0.010102145 -0.018775143 -0.03449491 -0.030070053 0.023406379 -0.020357843 -0.014312929 -0.0037043728 0.0146695785 -0.03837967 0.030756593 -0.028230786 -0.020766802 -0.003962729 -0.033640254 -0.018426334 -0.03350255 -0.011785816 0.027459912 -0.0324631 0.016442545 -0.0015223548 0.0015789047 0.014193963 -0.00082776695 -0.013400219 -0.0012834482 0.036166877 -0.021498514 0.03323418 -0.009519121 0.0011859015 0.0011088476 -0.02815049 -0.02285457 -0.029015148 0.005132884 0.017949622 -0.028833829 -0.028773574 0.019728467 0.023640878 -0.032548852 0.014528193 -0.035285797 0.038290523 -0.02909581 -0.012446791 0.025462829 0.037360713 0.0180647 0.01909171 0.025661051 0.02420105 -0.009662772 0.010584384 0.024766125 -0.031755023 0.0033822581 0.009906303 -0.03450662 0.005393829 -0.021763025 -0.010382637 -0.0032386035 0.0032586455 0.035885215 -0.008364752 -0.029284872 0.03660679 -0.002509024 0.03362517 -0.023202948 0.01574001 0.029088154 0.0045466907 0.008767899 0.038146533 -0.020283768 0.0020575859 0.03938724 -0.008824514 -0.013173755 0.026382178 -0.03341646 -0.024900377 0.0070578456 0.003020931 -0.014974786 -0.009258736 -0.027061816 0.03567677 0.019752663 -0.031220764 -0.0052659884 0.01201345 -0.004734747 -0.017264713 0.004883919 -0.026366089 -0.006786462 -0.039601218 0.024797149 0.037929825 -0.020579133 -0.029748112 -0.009280149 0.011920687 -0.011694891 -0.011509294 0.018003136 0.010204054 -0.030790497 -0.010849683 -0.025301501 -0.002567932
RX_32968 -0.0073564053 0.02801118 -0.029839136 0.008107662 -0.0022246093 -0.01735414 -0.023299208 0.03494683 -0.011969121 -0.027665716 -0.0010174327 -0.03322279 -0.032901928 0.025973678 0.0007297173 0.036890596 0.004628774 -0.012650024 -0.024578564 0.0189083 -0.0018525049 0.010863099 -0.0065885037 -0.020187208 -0.004746426 0.030014709 0.039260052 0.012771625 -0.034697145 -0.016842566 -0.026845835 -0.010264616 -0.032110844 -0.011981184 0.008312799 -0.027508944 -0.003967721 0.015495107 0.005635474 -0.013454491 -0.03772975 0.028696619 0.02049011 0.02922859 -0.020966846 -0.004483916 -0.013145246 0.026159711 0.023666538 -0.027863618 0.0026158355 -0.026661376 0.01629598 0.023783036 -0.0378875 -0.024412178 -0.020700676 -0.015655823 -0.0010685809 -0.025672939 -0.0035563782 0.023497425 -0.013107436 0.01603296 -0.036284376 0.016517013 0.026236907 -0.010495501 0.033092767 -0.020458922 0.008457024 0.009487078 -0.033687502 -0.016047966 -0.027376164 0.017314672 -0.029739905 0.01923237 0.009207383 -0.027623702 0.011933826 0.0060643367 -0.014315544 0.026700027 0.016652144 0.031541623 -0.000114846975 -0.023894124 -0.009675238 0.0077727214 0.017637819 -0.03229431 -0.01998019 -0.0027275644 0.027126454 0.03520467 -0.03264781 0.03799741 0.001261346 -0.023106426 -0.014377937 -0.019790223 0.010390669 0.032612644 0.003818635 -0.006288696 -0.035410296 0.038323775 -0.018690746 -0.036946997 0.025330953 -0.020100445 -0.032933682 -0.037278987 0.013983276 0.02285751 0.016485032 0.006912764 -0.005879473 -0.0042742863 -0.008102808 0.01183892 -0.039128624 -0.032058284 0.025136195 0.02952841 0.027516201 0.032679066 -0.0131052565 -0.013304723 0.013515864 -0.008950634 -0.034663733 -0.032057427 -0.033807155 0.0024965294 -0.0018965043 0.014260396 -0.023395108 -0.009847043 -0.0238724 0.0015308745 0.031655453 -0.016484777 -0.035085768 -0.020568037 0.022508953 -0.015296251 0.009301692 -0.038407985 0.005309887 0.0043881573 0.017490659 -0.037224893 -0.028682692 -0.01945936 -0.025239734 -0.029698413 -0.038867865 -0.02911138 0.030467354 -0.030464891 -0.0043322593 -0.011188857 -0.024583776 -0.024984915 -0.038646292 0.01944251 0.03858518 -0.037124716 0.0022881664 0.007300332 0.016438298 -0.027526159 0.021336049 -0.03243398 0.008709684 0.032377698 -0.019679412 0.010155227 -0.025362566 0.01129793 -0.021214202 0.009070143 -0.019540325 -0.029817814 0.012093142 -0.010021957 -0.010848302 -0.016217051 0.016634602 -0.0036226623 0.022172734 -0.02261974 -0.032523375 0.037865758 -0.0073332004 0.022320028 0.005026255 0.023351356 -0.03969131 -0.026995245 -0.01449875 0.0077311583 0.033312514 -0.026833199 -0.03440406 0.015003469 0.03384451 -0.00086645037 -0.03541559 0.032076113 0.0045581497 -0.01203111 -0.031665035 0.00991964 -0.021988092 -0.027122535 0.039567202 0.03586757 -0.0007687025 -0.036588427 0.0028450377 0.019385703 -0.0013775304 -0.008813303 0.020478625 -0.03358145 -0.022884686 0.018500537 0.020512283 0.032761283 0.011051167 0.01565934 -0.005881846 -0.009320332 0.023786403 -0.037642393 0.013918728 0.008184727 -0.032824226 0.021266643 0.027943179 -0.010829829 0.031545676 0.013007965 0.0013326854 -0.019869635 -0.015651805 -0.022723414 0.002646301 -0.028115056 0.027975276 -0.019077284 -0.019158397 -0.01718975 0.03290362 -0.02517863 0.022450339 -0.0302799 0.020176962 -0.026174601 -0.013894228 -0.009741288 -0.039408337 -0.03538833 0.016807444 -0.038140193 0.016034141 0.0083081275 -0.03321554 0.029144362 -0.034795266 -0.02050628 -0.026050927 0.028861351 0.007254664 0.011091813 -0.0010778345 0.0040522628 0.014152415 0.018571403 0.022466622 -0.018252041 0.006619241 0.029069088 -0.028209265 -0.037480045 -0.0057380684 0.022425223 -0.039703283 0.00029587373 0.035654522 0.009774454 0.0009806268 0.035830863 -0.027367383 0.024246871 -0.032704815 0.035237856
RX_XXXXX146 -0.0011379495 0.011707194 0.016520578 -0.027987687 0.024198122 0.026108406 0.012512155 -0.03216977 -0.006441161 0.016531806 0.037596107 -9.063259e-05 0.026453607 0.028522134 0.028460763 -0.0043174736 -0.00017546862 0.031192735 0.019291293 0.0032758862 -0.023137074 -0.021234429 -0.017895639 0.0072459243 -0.035864044 -0.009511672 -0.026227858 -0.03480122 0.004301116 -0.02541253 0.007337816 0.033287868 -0.009086324 0.036726885 -0.02523208 -0.019624403 -0.008652149 0.012160808 0.033685267 0.0039809234 -0.031724945 0.028779976 0.031449907 0.014605582 -0.01862601 -0.022445455 -0.019736871 0.0138062425 0.001952216 -0.0075309053 -0.003820192 0.03970302 0.009688396 -0.034434296 -0.030375995 -0.014064891 0.01197581 0.010990109 0.03458836 0.03297785 0.023600549 0.007494677 0.025995053 0.02937515 0.028892368 -0.018028121 0.022955202 -0.0025628395 -0.031887908 -0.03011727 0.0129300915 0.024183266 0.023565985 -0.024637505 -0.022998706 -0.014438139 0.0022608638 -0.0026012138 -0.014919436 0.028175496 -0.024807803 -0.028056521 0.005753413 0.011660408 -0.017162293 -0.0052803457 -0.031858765 -0.015362604 -0.020490918 -0.021408333 -0.0081833005 0.03114 0.0022178628 -0.0034358464 0.037368037 -0.016073931 -0.0005444065 0.0037462339 -0.029317645 -0.039632224 -0.002827309 -0.016916785 0.0031514578 0.025595672 0.01634691 0.0037263408 -0.028741023 0.03723032 -0.033390522 0.021886136 0.035993114 -0.0005770698 0.010805607 -0.018822074 -0.036831513 0.0024289712 0.028058112 0.01078799 -0.016515266 0.029767238 0.02373521 -0.03175371 -0.03751507 0.02145483 0.032767206 -0.033455305 -0.037950877 0.024263427 -0.0027846247 -0.019620063 -0.019561162 0.030214533 -0.007504359 -0.016061721 -0.011719031 0.011594728 0.035998315 -0.0009335466 -0.02033855 -0.004425317 0.01747511 0.03859248 0.03675408 -0.020129072 -0.025169514 0.034134753 0.036990546 0.0066480003 -0.037332047 -0.003542982 -0.008218043 0.023372836 0.004768908 0.0167513 -0.017559187 0.0049730837 0.01855896 -0.012760727 -0.006204646 0.02626481 0.0136686675 -0.021217164 -0.017979732 0.011908196 0.0318202 -0.011065779 0.018644039 -0.020413114 -0.018917505 0.0037752725 0.033668585 -0.0015104823 -0.027002677 0.00084765255 0.023398817 0.0035660975 0.02021728 -0.005890589 0.029287688 0.023328759 0.023028709 0.011188023 -0.02700637 0.016174428 0.012400113 -0.032115974 0.032025635 -0.024477318 -0.034271993 0.011233017 -0.02115117 -0.03749477 4.1157007e-05 0.03669899 -0.01861626 -0.00026104972 -0.0064784773 0.03533324 0.0326154 -0.0012141392 0.012664314 0.029276043 -0.006415248 -0.03379326 -0.024686735 -0.025086563 0.0012748986 0.021099731 -0.031065637 -0.031117316 0.034376144 0.006878007 -0.018420942 -0.03914201 0.014492612 -0.002293393 -0.0053383 -0.022408735 0.004541818 0.03351275 0.028202862 -0.037127107 0.02872862 -0.009347405 0.034327753 0.0035520531 -0.023014525 -0.009017536 -0.02431534 -0.0054464787 -0.03335415 0.019180167 -0.037633438 -0.018555379 -0.033961322 -0.036288526 -0.023899028 0.02605953 0.014924865 -0.0070997477 0.03376715 0.022245929 -0.029118799 -0.014734566 0.0019758232 -0.017440824 0.0058384202 -0.000565961 -0.023702817 0.020818591 -0.038289562 0.0034827814 -0.01699052 -0.010530572 0.02634184 -0.00984033 0.03352852 -0.0030051507 -0.015474031 0.0031077862 0.0071477666 -0.017585428 -0.004461456 0.0140341185 -0.0031181686 0.030569747 0.016377054 -0.012345329 -0.021319887 -0.006702002 -0.015093917 0.001286108 0.023192257 -0.0011414997 -0.02251395 -0.03260654 -0.033483453 -0.03297881 0.028454475 0.03873778 0.015184943 0.011748992 0.032416694 0.019418389 -0.035151932 0.0034402236 -0.038527824 -0.00446371 -0.0001838021 -0.021370878 -0.025982779 0.027396552 0.03277476 0.017673083 0.026299603 0.028587632 -0.011841645 0.021623157 0.0064655133 0.031612217
RX_235473 -0.0030589253 0.03193569 0.019247815 0.0059027746 0.01147905 -0.025190022 -0.00036954507 0.03891643 0.013726287 -0.0020458847 -0.007627994 -0.016203884 0.031342447 -0.026338361 -0.0011815466 -0.0023068823 -0.0022512488 0.006799549 -0.029388506 -0.02657789 0.0075587817 -0.0330725 0.01800919 -0.029034216 -0.0033853464 0.009175368 0.029326275 -0.026192479 -0.004453715 -0.004994612 0.0048198104 0.020862881 -0.02392991 -0.005753245 -0.0353863 -0.01432085 0.0127168 0.0060095154 0.039125957 -0.035648186 -0.019654566 -0.014974393 0.023003958 -0.009061687 0.0068046898 0.0026794262 0.035281934 -0.0116974395 -0.004320346 -0.026727952 0.0011444762 -0.01623669 0.027972668 -0.021257939 -0.033845887 -0.018605696 -0.001820948 -0.03138677 -0.008348085 -0.01456088 -0.0137373395 0.0049632043 0.008943722 -0.036204662 0.012707386 -0.015767254 -0.0043398514 -0.025717571 0.019994676 0.0038839504 -0.0042445064 -0.038121015 -0.003976863 -0.0015780218 -0.030448366 0.031775363 -0.036431134 0.019354995 -0.034907304 0.00710671 0.00061973184 -0.03284815 -0.022324543 0.029149264 -0.0011753999 -0.030387556 0.025827572 -0.030188605 -0.031329535 0.0048795715 0.033226483 -0.02150292 0.01739753 -0.039408095 -0.020297997 0.03307429 0.016201235 -0.010614224 0.025449298 0.017318036 0.037441656 0.011706278 0.006925497 -0.012760131 -0.037773963 0.02896268 -0.027859204 0.032718457 -0.032956578 -0.017526574 -0.012328215 0.032997727 0.0022561923 -0.015152277 0.032184698 -0.03676113 -0.011019701 -0.027553178 0.006239433 -0.003200572 0.008354679 -0.015389616 0.020347457 0.024270102 0.025897078 0.023771435 -0.031805348 -0.0026153326 0.035223022 -0.008797104 -0.0052805133 0.0015904903 -0.020128092 0.023590982 -0.00026889518 0.017115436 -0.006284248 -0.022712896 0.001171872 0.0020617172 0.024175785 0.0072765164 -0.030814586 0.020041455 -0.0071690194 0.03261158 -0.03148009 -0.039231412 0.034915507 0.024547815 0.017653331 0.0155444145 0.0038182065 -0.038865812 -0.010005061 -0.038733594 0.015533976 -0.0059971176 -0.023371203 -0.017830243 0.031031549 -0.002930209 -0.0017967746 0.0025705434 -0.026614867 -0.031809784 -0.03381232 -0.03273836 -0.036886707 -0.021270283 -0.017062053 -0.0057821497 0.031370074 0.031141773 -0.036692537 -0.00042831898 0.021399297 -0.019894406 -0.018679285 -0.0293544 0.01917975 -0.005503487 0.03454516 0.031030968 0.031602003 -0.033168104 -0.01413469 0.03436906 -0.02896376 0.038150363 -0.013460059 -0.0014098808 -0.0030027665 0.02608838 -0.009987818 -0.024805335 -0.030253088 -0.0012253746 0.017942071 0.0046612434 -0.018293966 -0.015656093 -0.011800898 0.025009476 0.015286367 -0.025506282 0.018847115 0.02553498 0.008983351 0.037280664 0.0054966956 0.036354914 -0.01179398 0.02491235 0.018789034 -0.02653762 -0.009166328 -0.02267148 -0.005186837 0.009218413 -0.02967275 -0.0071122088 0.031817615 0.0025216974 -0.0028572567 0.031998225 0.023486689 -0.03448962 0.025506034 0.01660953 -0.017362952 -0.026658315 -0.010476429 0.031479366 -0.014631407 -0.033490427 -0.024913002 0.01313426 0.0046798997 0.012221713 -0.010904582 0.020984638 -0.011056142 0.021898922 0.014030937 0.033812724 -0.02083639 0.02227395 -0.033044137 -0.019182475 -0.00041989982 -0.0044708177 -0.030299298 -0.023645248 0.030748747 0.03756377 -0.035893552 -0.035241343 0.016230803 0.02466435 0.021227919 0.033917442 -0.0196932 -0.020305814 -0.039251614 0.0022516437 0.0022589639 -0.026270019 -0.037470978 -0.01936414 -0.011046646 0.003203012 0.018352926 0.00035468861 0.00491596 -0.012045627 0.01719511 -0.029000469 -8.050725e-05 0.01032779 0.033625454 -0.0007160604 0.011553466 0.023575842 0.033776224 -0.0021326728 -0.031051613 0.021043304 -0.039262343 -0.03606662 -0.0049264394 0.008365691 -0.015102195 0.032747842 -0.025232209 0.022580773 -0.03785448 0.03389576 0.028163716 0.025720097
RX_6960 0.03371331 -0.004600346 -0.02065773 0.037700452 0.010227814 -0.008635845 -0.014283074 -0.02426558 -0.037758697 -0.018176397 0.021660943 0.029385038 -0.0291735 -0.026492579 0.022278264 -0.021250533 0.006583385 -0.039681308 0.009021018 0.013910983 -0.0075421818 -0.010939948 0.033958837 -0.010290297 -0.021992521 0.022109002 0.013971869 -0.008753214 0.027276292 -0.03176026 -0.0022800155 0.026412189 0.018820923 0.023275249 -0.026124312 0.0073578916 0.032772534 0.03179965 0.027459532 -0.032084044 0.034600466 0.004531458 -0.0114954915 -0.017829206 -0.01551564 -0.018557874 -0.012056299 0.013556112 -0.009985108 0.0017217249 -0.011440538 -0.01961506 0.037703596 0.02363044 -0.024251197 -0.030203238 -0.006183803 0.025434285 0.0028515533 -0.029589396 0.018636253 -0.011847416 -0.0058279186 0.017896634 0.028915219 0.025629558 0.0065231025 0.014254659 0.014923435 -0.034543 -0.020088457 0.013467394 0.0033511668 0.011278275 0.0037438124 0.0019348785 -0.020442022 -0.011247544 -0.023668593 0.037789933 0.036928743 -0.0047035366 0.020882145 0.019098554 -0.021465294 0.027946755 -0.017524153 0.0274136 -0.0183361 0.0051025823 -0.021272818 0.003978122 -0.005850643 -0.024950296 -0.03238952 0.036471844 -0.0069895834 0.03537818 0.00044133887 0.026924513 0.014779497 0.007882565 -0.03860044 -0.0014317445 -0.023418585 -0.026546624 0.024618655 -0.0009039603 0.02159059 0.006110411 0.027540125 -0.035258844 0.021779347 0.03502196 0.03700105 0.017960224 -0.022022074 -0.0055723004 -0.00588746 -0.033883605 -0.03806917 -0.011125702 0.005659435 -0.02267763 -0.027857725 0.0067465194 0.002011083 0.03661471 0.022455014 -0.02033286 0.022143658 -0.016905153 0.030613258 0.002522245 0.017529014 0.026316844 0.013296366 0.011499219 -0.0133816935 0.026859477 -0.004260037 -0.03725129 -0.029397447 0.014594231 -0.005358871 -0.0016463026 0.024069712 0.00058012456 0.0011716969 -0.03153789 -0.011682473 0.024215378 -0.016880397 -0.0019295067 -0.032564066 0.0066568665 0.037824184 -0.019448768 0.00074047595 0.015616633 0.002844479 -0.018766463 -0.006661471 -0.030779056 0.03965096 0.0105810575 -0.014151372 0.009924494 0.024370722 -0.038756374 0.015730985 -0.033497542 -0.037402354 -0.022155557 0.03204 0.0023203604 -0.00041246042 0.0186514 -0.027775252 -2.983585e-05 0.007964637 -0.0027212538 0.002134785 -0.0113875605 -0.013428094 0.020824678 -0.010142552 -0.023785261 0.0053424425 -0.032167755 0.033632122 -0.01690104 0.03214906 -0.005186338 0.035553835 0.034210004 0.0073836073 -0.018718584 -0.031471983 -0.0050135106 -0.012700306 -0.034656793 0.0073815174 0.0043117628 0.004584737 0.026177533 0.013338 0.025413677 -0.020137401 -0.024236094 -0.031544402 0.01680801 -0.015958903 0.031078108 0.02213227 0.009130061 0.0063348673 0.034507528 0.03055542 -0.02651684 -0.022979066 0.017839748 -0.035954263 0.023085624 -0.0020686612 -0.015158664 -0.0057509467 -0.011592733 0.030597374 0.016815554 0.015572853 -0.00080120936 0.035740785 0.038119517 -0.007984456 0.027258873 -0.031344235 -0.022411369 0.013443995 -0.027874477 0.035842434 -0.013797101 -0.026578354 0.0143074095 -0.010081908 0.010550402 0.014937658 -0.039509933 0.03196034 0.027110308 -0.007063724 -0.025393695 -0.026774656 0.011097997 0.009365633 0.019416768 0.03709066 0.005535096 0.021460757 0.0008520521 -0.0293005 0.009545792 -0.004808709 -0.01909345 -0.030373665 0.007147949 0.01619552 0.018221699 0.01115106 -0.03758209 -0.030168947 0.009841166 -0.03809155 0.025381707 0.00017310679 -0.015370194 -0.039277416 0.022171713 -0.0013999976 0.008245833 -0.03174162 -0.028463073 -0.020719359 -0.007395353 0.038734764 0.0018866882 -0.034909125 0.011489432 -0.026280822 -0.022569003 -0.008407742 -0.036906242 -0.011650296 0.0042216145 -0.019471508 0.034688845 -0.024273043 0.010000519 0.014707599 -0.034376293
RX_71722 0.0106604695 0.0013235025 0.017811794 -0.0075536296 0.015042447 0.026803523 0.016448889 0.0034936182 -0.036502074 -0.023476869 -0.029070143 -0.016116071 0.038699955 0.031311035 0.012495115 0.008950997 0.03174866 -0.00538186 0.006997917 -0.025018774 -0.02962337 0.0043838695 -0.02980649 0.021793853 0.036723003 -0.010647818 -0.00016186759 0.021597773 0.03910882 -0.025209324 -0.022778632 -0.0062146336 -0.03561639 0.033847682 0.0076286197 -0.025314037 -0.03440145 -0.011599962 -0.0069219507 -0.0101215895 -0.013233144 -0.0011782385 0.011237916 0.009391546 0.018153414 0.00070717186 0.022524137 0.010862455 -0.031187331 0.008818697 0.021765891 -0.0071374364 -0.0048213936 -0.026279017 -0.02728476 0.0059644096 0.03342422 0.025335878 0.031386904 -0.012673484 -0.030317731 -0.014674952 0.013297889 -0.002918236 0.039506607 -0.013626069 0.009907912 -0.008912647 0.015951328 -0.0033566356 -0.036451314 0.01839799 -0.00027250126 0.003784828 -0.004615076 0.028989613 -0.039682843 -0.0028334334 -0.034717478 -0.009324554 0.013931528 -0.013404144 0.005885016 -0.015613265 -0.005640056 -0.034444153 -0.039363515 0.0037824884 -0.023168331 0.035369724 0.0032483973 0.03178201 0.011222471 0.03152577 0.024531692 0.015608631 -0.03336625 -0.033764645 -0.015215043 0.031969965 0.0032383949 0.0027226843 0.03403312 0.0058651455 -0.02608025 -0.012311736 -0.02097265 -0.0028011464 -0.027859177 -0.010955755 -0.035157412 0.0058341436 0.02571842 0.031300105 -0.036058452 0.028038345 -0.012896106 -0.03762495 0.029368639 -0.03253115 0.028917365 0.011944581 -0.02157503 0.0152453855 -0.01363644 0.03516554 0.019561019 0.02926065 0.004991304 0.00011597946 0.017347194 -0.029122606 -0.024312284 0.039467312 -0.010352859 0.026465945 -0.005548902 -0.010679392 -0.004091393 0.024375416 0.023545831 0.01284666 0.019801613 -0.035938047 -0.0066147745 -0.014013872 -0.036099248 -0.029651847 -0.0020909905 -0.038255136 -0.033198737 -0.024443317 0.03192775 0.032358438 0.024620973 -0.03670567 -0.004619062 0.030275077 0.022284567 0.03632438 0.036686145 -0.00516361 0.0037595816 0.037518427 -0.03133121 -0.023286793 -0.035923444 0.0031933822 0.0013438687 -0.021969505 -0.028959952 0.027093247 0.007278532 0.033062167 -0.0010515712 -0.0050740913 0.008827958 0.019096982 -0.019182941 -0.031211585 -0.029838253 0.03755054 -0.02670528 -0.031232558 0.02728758 -0.031308524 0.015781227 0.0009981282 -0.030570429 -0.00763572 0.008304834 -0.023276668 0.039119124 0.03558971 0.005667504 0.015390005 -0.013891233 -0.039484005 0.018043075 -0.008118153 0.017696891 -0.008731788 0.010981336 -0.0011277497 -0.029311258 -0.028531995 -0.038035434 -0.015425986 -0.026133476 0.032864384 -0.012005599 0.031221814 -0.025952227 -0.028439488 -0.014907258 -0.03866055 0.013586473 -0.021211416 -0.029623294 -0.03549208 0.029915914 -0.0362589 -0.038418375 -0.012748042 -0.005605787 0.03271777 -0.014205644 -0.027968625 -0.00068017095 0.03813885 0.017034136 -0.032218225 0.02072912 -0.02228795 -0.001613237 -0.008287802 0.026697166 0.01624382 -0.03700244 -0.03361162 0.014507752 0.007016111 0.02665814 -0.023731563 0.022937022 -0.027582528 -0.033399012 -0.0023836568 0.028159976 -0.013036301 0.0021502562 0.024537027 0.010293569 0.032797866 0.00037116557 0.01831678 -0.03800001 -0.024484687 -0.02236569 -0.035210524 0.009426698 0.032684304 -0.026324838 -0.030386295 -0.031392038 0.021224417 0.039107673 -0.011681445 0.033008665 -0.038971443 0.0042972416 -0.038953856 -0.0050363727 -0.0078561455 -0.035386298 0.009088334 -0.028661251 -0.014195299 0.019458469 -0.008002918 0.035766833 -0.013265297 -0.033753026 -0.019380217 -0.011742746 0.02330321 0.020730782 0.008305758 0.015742157 -0.015206467 0.032366924 -0.030600525 -0.02442706 0.0041866377 0.013211571 -0.0043142997 -0.00062731653 0.009512242 -0.01054908 -0.03034253
RX_261551 0.0066710897 0.016249716 -0.03711807 0.0032677315 -0.027576435 -0.033762872 -0.020586621 0.013395306 0.018706575 -0.009013532 -0.0108705815 0.038785838 -0.0012040474 0.017129418 0.01952755 0.018313244 0.019102424 0.03570024 0.009716738 0.038590536 0.038426265 0.023912221 -0.022999857 0.027687795 -0.0077504106 -0.01636335 5.121529e-05 0.020061776 -0.013371056 -0.016058959 -0.0065536834 0.03658303 0.014968187 0.020943481 0.029767968 -0.0133563075 0.021613821 0.03130071 0.024228528 -0.029863376 0.029030032 -0.018641124 0.03332056 -0.025706947 0.016141143 0.015085261 -0.015207922 0.03449154 -0.011341538 0.03662531 0.024310127 0.024651937 -0.017785197 0.027001418 -0.015164815 -0.0081875995 -0.016603362 -0.039420277 -0.027098976 -0.025907233 0.020792048 0.00059581175 0.031802416 0.037901223 -0.024414789 -0.038276713 0.015288044 0.00078717247 -0.011826327 0.029767968 -0.01849262 0.0020259544 -0.0021418482 -0.028581314 -0.03526636 -0.014883136 -0.0025290847 -0.0099348035 -0.0058211237 -0.022027954 0.0030924454 -0.006529968 -0.0007597394 -0.038227703 -0.0013436079 -0.023403347 -0.014334781 -0.033187836 -0.014230059 0.026838034 -0.031693272 0.023781933 -0.023008708 0.033625916 -0.012257034 0.031343356 -0.03818132 -0.013784314 0.032821164 0.029618934 0.03437227 -0.038330443 -0.037817758 -0.038660858 -0.021452013 -0.02661915 0.008274093 0.014211409 -0.020723036 -0.025981702 -0.028939437 -0.009475479 -0.011563659 -0.03845001 -0.011631304 -0.0049795136 0.02884844 0.03604339 -0.017786667 0.026295215 0.021316286 0.012793947 -0.021310741 -0.02067712 0.007811811 0.0029986352 -0.015074296 0.029818296 0.013176385 -0.00971158 0.0032293387 -0.017772608 -0.013714846 -0.031641655 -0.037559755 0.0011679716 -0.0050497353 0.024985872 -0.0139633585 -0.018173795 -0.0012700744 -0.030758377 0.01717183 0.019445963 -0.036760338 -0.010837652 -0.038644765 0.038466237 0.009152465 0.039124608 0.008976977 -0.0024701841 0.03360793 -0.03854926 0.0153310895 -0.011658473 0.025153466 0.0085893795 -0.0061566085 0.0072741844 0.0071830824 0.02803199 0.003432572 0.0029615834 -0.017882736 -0.018508242 0.027794458 0.0031744726 -0.02349018 0.029741004 0.021610875 -0.015406862 0.007954396 -0.023690848 -0.0369527 -0.027503174 0.018437479 0.015988994 -0.030056871 -0.03806395 0.021132417 -0.0013491437 0.008348886 -0.020164201 0.014623888 0.030345134 0.036564387 -0.003933087 0.01945642 -0.039013032 0.036408953 -0.03935231 0.0019767694 -0.039021805 -0.010393854 -0.0016716793 -0.010243129 0.025638811 -0.036756113 -0.025009753 0.038298547 0.026995338 -0.023832832 0.0030105487 0.002513662 0.034168176 -0.03716547 -0.03958253 -0.03753361 -0.025261663 -0.03732653 0.0215839 -0.027246129 -0.0277152 -0.023146607 -0.030992717 -0.011882113 -0.016818393 -0.020373542 0.038749747 0.01325167 0.026620165 -0.014756633 0.023840033 -0.029789792 0.0051039755 0.029401429 0.023845978 -0.00023743138 0.036250964 -0.024402067 0.0023588464 0.016497493 0.023030795 -0.031144878 -8.122623e-05 -0.014034767 -0.027458515 0.03246125 -0.027624905 -0.031264048 -0.0043307766 -0.02034135 0.0046396814 -0.022881413 0.034236312 -0.019399093 0.031671695 -0.028096776 -0.013588969 0.028022155 -0.0063762516 -0.012268813 -0.028047113 -0.014290636 -0.03575503 0.0075223707 -0.0050142445 -0.013129823 -0.02431969 -0.025527932 0.039471738 -0.013961548 0.01214556 0.0095112845 -0.03530747 0.026191436 0.0349933 0.031522766 0.033972345 -0.0065197945 -0.017666388 -0.03058545 0.031708583 0.027775303 -0.018355666 -0.0031746402 -0.026874535 0.02210582 0.027222231 -0.009449339 -0.00025577843 -0.027921708 0.008444823 0.011858817 -0.011274518 0.015911132 -0.025793783 -0.0011536665 0.036349133 0.011645611 0.01203217 0.018669378 0.016138345 -0.034113538 -0.011076823 0.0005900599 -0.01941202 -0.0031515807 0.027493864
RX_36387 -0.0074018016 0.014231708 0.033249505 0.019738868 -0.010353295 0.039589606 0.03860595 0.016683213 0.028138727 0.004919119 0.032281734 -0.012681747 -0.008279879 -0.012924349 -0.036361877 -0.036000825 -0.0047513843 0.028616816 0.02609054 0.030301884 -0.03789859 0.032143578 0.020169556 0.031480208 -0.025360765 -0.028458413 0.008200549 0.024764843 -0.034257326 -0.0104312 -0.005168576 -0.009053195 -0.007558584 0.014188807 -0.019614637 -0.03853653 0.005626656 0.0031115673 -0.005014196 -0.025262984 -0.03782159 0.007971421 -0.0002992414 -0.0115851 0.019941706 0.031330697 0.007750135 0.014597487 0.022170302 0.025655635 0.023192614 -0.021670418 0.019219939 -0.036225855 -0.007837955 0.018403918 0.0142348595 -0.022460239 -0.010073872 0.0068115555 -0.01109146 0.020754676 0.019294873 0.022456817 -0.029442893 -0.038379624 0.0070910826 -0.028794346 -0.029899225 -0.029045913 -0.038013883 -0.016994482 0.036340274 0.016804777 -0.01193025 0.039522417 -0.02840346 -0.025898851 -0.0042320043 0.0014840737 0.037935734 -0.0069305412 -0.02469145 0.0018752106 -0.003069125 -0.0035335235 0.00950215 -0.02062163 -0.003477808 -0.038379338 -0.005170904 0.0076619573 -0.019506684 -0.026110224 -0.028738558 0.025670655 -0.009921618 -0.03451494 -0.0020545013 0.007228721 -0.006782666 0.0044922903 0.014277391 0.0104471855 0.024558641 -0.020733139 0.026868433 -0.03307214 -0.024617534 0.013678145 -0.018475825 0.017366808 0.027369484 0.03518956 -0.035615515 -0.009756271 0.0010562018 0.007258069 -0.023837177 -0.022982756 -0.013300179 -0.0034816153 0.017460506 0.02285859 -0.029664606 0.014957644 -0.0026429258 0.03955929 0.034893587 -0.008201312 -0.035474367 -0.008892251 0.028175242 -0.031685397 0.008516934 0.022602953 0.023203358 0.033489235 -0.03658385 0.01951795 0.012387391 -0.015465818 -0.036976855 -0.0041192807 0.0011785962 -0.025432713 -0.011474609 0.032402635 0.0040271096 0.008432936 -0.026706278 0.01790974 0.0041256063 -0.009950042 0.039264232 -0.018269032 -0.020486513 -0.011297565 0.03033536 0.008980878 -0.02433668 0.0292691 -0.025724787 -0.0042256303 0.038530998 0.030438356 0.038388744 -0.028427098 -0.013051966 -0.030183055 0.022892103 0.014874812 0.013365533 0.020353276 -0.021798916 0.013942119 0.034564532 0.03388171 0.0329682 -0.00962263 0.026532933 -0.0130766705 -0.0051741153 -0.012685135 -0.038217794 -0.030221239 0.014296386 0.017167259 0.0039629936 0.031086862 -0.022102822 0.029692985 0.024674155 -0.010147262 0.021026492 -0.030544005 -0.01806587 -0.007852379 0.011354938 0.0052228644 0.039504275 -0.015258804 -0.0013382621 0.012205768 -0.038749486 -0.033056993 0.019043282 0.01534595 0.022052392 0.03076382 0.0057553723 0.029765084 0.011210486 -0.03085842 0.03189566 0.030621074 -0.01796907 0.031114675 0.02357208 0.016760085 -0.0074507035 0.032084234 -0.03420507 -0.02581304 -0.0014481768 -0.03944058 0.011199851 0.024013534 -0.0011684187 -0.008089509 -0.03938888 -0.033783805 0.019109774 -0.036944944 0.030843265 -0.014226239 0.0389072 0.006759532 0.010784425 0.0058167316 -0.022101698 0.006604437 -0.030372161 0.036057927 0.024448276 0.01050609 -0.03325945 -0.013506208 0.009749431 -0.021003189 -0.035144195 -0.01168514 0.03617437 0.007341858 0.008193333 0.03822176 0.028969415 -0.032016516 -0.02659672 0.02761022 0.029218696 0.015125591 -0.016582472 -0.007909693 -0.0109210145 0.026664317 -0.031234566 -0.01941356 -0.0051454008 0.0024341345 0.02232714 0.010418858 0.030044183 0.0048788562 -0.010547971 0.03481824 0.008155175 -0.022263568 0.006395243 -0.02294107 -0.0038618036 0.033871256 -0.03756188 0.03771331 -0.025403976 0.014744353 0.01953005 0.007648919 0.038476296 -0.015550811 0.032381155 -0.024026673 0.008798569 0.026682623 0.0035369098 -0.031681467 0.0021722578 0.026665397 -0.0021391585 -0.020222114
RX_XXXXX54 -0.0014143661 0.013668817 -0.024424598 -0.00021308288 -0.017921252 -0.03488887 0.0062728003 -0.031118836 -0.038326204 0.026456088 0.014625616 0.023875631 0.0019787624 -0.025589537 -0.019155212 0.030895226 -0.012814831 -0.03461104 -0.0042460486 0.033261217 0.013902605 0.03206213 0.026500463 0.023102753 0.034038723 0.003688857 0.01911283 -0.014633242 -0.028839681 0.019311946 -0.032160647 0.031789444 0.029110335 0.019988656 -0.029817056 -0.028006382 -0.010769138 0.0036788248 -0.013569647 -0.031611137 0.02666638 -0.020227393 -0.011564739 0.022762842 0.014730465 -0.039375223 -0.018582433 0.024947762 0.008364763 0.028645314 0.011539735 -0.037759617 -0.02622814 0.013049815 -0.013974408 0.024444677 0.023714371 -0.019146243 0.0021437556 -0.03178601 -0.007345099 -0.009820908 0.025469229 0.01680471 0.028917842 -0.032424033 -0.0138884485 -0.03538178 0.037838995 -0.004776854 -0.023200663 -0.013659149 0.004616704 -0.034328043 0.015661247 0.02871079 -0.0069575086 -0.035896976 0.036696024 0.03849192 0.037774146 0.019535065 0.025616579 -0.023305377 -0.021162271 0.021780029 -0.0014707372 0.03691528 0.022156805 0.039171584 0.031046964 0.015383612 -0.0390816 -0.038572133 0.020106811 -0.026310932 0.018922102 0.026176281 0.0017564744 -0.038154326 -0.015194366 -0.03022254 0.024231292 0.0034614652 -0.010788897 0.032017946 0.021099757 0.022450872 -0.03684966 -0.00578044 0.026789442 0.020022094 -0.023362467 0.021289457 -0.016928308 0.011847917 -0.023292603 -0.039095327 0.004390519 -0.02681052 -0.024203654 0.03517694 0.017145067 -0.031602636 0.03689353 -0.02772303 -0.014664775 -0.0073787086 0.038980342 0.024961092 -0.015418878 -0.031884678 -0.011268571 0.030578472 0.024156027 0.03051 0.012293849 -0.011359885 0.03104458 0.009065818 -0.004624877 0.03188481 0.037064396 0.006627042 0.009709738 -0.010055985 0.009723611 0.007573396 0.0017043948 0.015487246 -0.016618093 0.036224224 -0.03551147 0.03636436 -0.00842458 0.016688637 0.03422305 0.00077784806 -0.0066183694 -0.03942005 -0.00858492 -0.03950284 0.029925585 -0.010048434 -0.013193339 0.037963837 -0.004565526 0.029722571 -0.0015414432 0.032576628 0.019064568 -0.012836557 -0.00053024665 -0.019854378 0.002817195 -0.003333427 -0.01378727 0.0114533305 0.036794297 0.018291838 0.024714127 -0.010763878 -0.0115070995 -0.031924814 -0.018536089 0.032630593 0.0076032914 -0.0004322715 0.032540932 0.014081333 0.014534235 -0.015210811 -0.03451325 0.00053460896 -0.0065063424 -0.01136715 0.0010893568 0.03716678 0.031610608 0.008874185 -0.029047022 0.012545425 0.026609495 0.012731336 -0.020898296 0.024632141 0.017739043 0.027993925 0.030505791 -0.02211083 -0.033932276 -0.0080896355 -0.0043934435 -0.03277281 -0.023431242 0.033797383 -0.02062731 0.009961028 0.004018862 -0.010643957 -0.0008998476 0.03832028 -0.0200437 -0.0042522512 0.021772895 0.013505131 -0.01047346 -0.0075362884 0.02652464 -0.00952691 0.02392365 -0.034356646 0.039445564 0.0048677213 -0.009807745 -0.015552044 -0.00037639216 0.016257051 0.0292494 -0.035304323 0.006379597 0.0076303594 0.0071153715 -0.022561938 -0.015642343 -0.02305407 0.037454173 0.016639661 0.037929885 -0.036782786 0.015123498 0.009135108 0.0005157478 0.008262556 0.020654049 -0.023100045 -0.028347861 -0.018187968 -0.022767715 0.0028339885 0.010693822 -0.006043937 -0.01647874 0.024952352 -0.038544334 -0.0139549095 0.038780592 -0.023140512 0.023389205 0.036075138 -0.017899709 -0.020554248 -0.0066085234 0.0006684698 -0.021179575 0.022539448 -0.038830053 -0.03537253 -0.02753706 -0.03965855 -0.0061341487 -0.026228964 0.009266391 0.038207576 0.03562312 0.009649649 -0.03699832 -0.0265757 -0.025265813 0.03172765 0.03652136 -0.004868202 -0.02089468 -0.036977466 0.02441547 0.025029615 0.03727191 0.00085852295 -0.016492825 0.020348437
RX_221147 -0.023896607 -0.033166572 0.0004426837 0.020224173 0.03632523 0.029955402 0.004038263 -0.03134526 -0.032640815 -0.00856301 -0.027802145 0.008311175 0.018291585 0.027303964 -0.0025693253 -0.025799759 0.011354286 -0.011810383 0.009609837 0.0050669946 -0.02273028 0.03703723 -0.014236551 -0.021419879 -0.024774263 0.033606797 0.0077667087 -0.038667984 0.008960109 -0.031465333 0.02666939 0.039187327 0.008925874 0.01612885 -0.02364216 -0.0111353975 0.021788783 -0.035047762 -0.014874868 0.028775014 -0.021060696 0.029037423 -0.02459021 -0.037871495 0.013077371 -0.028402232 -0.011741221 -0.01686747 0.029898793 0.0217814 -0.032898333 0.02669274 0.0043548383 -0.03789897 0.016184065 0.029857442 -0.0009675212 -0.022750758 0.02330447 0.03587099 0.012189325 0.03360904 -0.03957094 0.0075594 0.025734112 0.00013209134 -0.0054013357 -0.0050578564 -0.03086752 0.01175639 0.017964587 0.0038799718 -0.030088808 0.01503269 0.0020472892 -0.024344461 0.034411445 -0.033596586 0.02939704 -0.0038693473 -0.01054473 0.03825119 0.02870249 -0.025686285 -0.021740386 0.0009179935 0.013710104 -0.023331005 0.01426046 0.03106261 0.028087042 0.008225452 -0.02386182 0.027696371 0.029288247 0.031110942 -0.026704904 0.037171 0.029100284 0.019227456 0.037091136 0.035932913 -0.017159961 0.013405655 -0.008784007 -0.007012211 -0.0074109696 -0.004650891 -0.035633806 -0.020144822 -0.011854686 0.004850719 -0.028230123 0.024780713 0.034872457 0.01901422 0.020389624 -0.016914625 -0.015055193 -0.034283534 -0.017058555 -0.016702881 -0.03756866 -0.003900174 -0.015946 0.0308704 -0.03566089 -0.038584467 -0.035840318 0.021108523 0.03167221 -0.039020997 0.0030794293 0.0063547865 0.031089112 -0.03280487 -0.023318434 -0.035912484 0.025683194 0.026619568 0.010407984 0.0292295 0.0026851296 0.0022530258 -0.0027856678 0.030587628 -0.00783487 0.039312594 -0.021075241 -0.01232812 0.004307758 -0.03257967 -0.02227331 0.012617506 0.000919126 -0.0121117905 0.023195297 -0.013944704 -0.0013185963 0.02388306 0.027091019 0.012042977 0.024457939 -0.03554314 -0.035778247 0.008744869 0.0058213733 0.009690855 -0.030350603 0.024225183 -0.02917327 -0.029516865 0.006307181 -0.031473912 0.022446241 0.0039121583 -0.0123755485 0.0279634 0.013621859 -0.03553423 0.0146220215 -0.037076432 0.020268444 0.017345972 -0.034666955 -0.011917777 0.012177158 -0.010405423 0.036414705 -0.02448244 0.03396158 -0.0110141 -0.036065318 0.02224842 -0.006869711 -0.000125058 -0.0012985505 -0.005751483 0.023373172 -0.036546838 0.0010329299 0.017804474 -0.030577324 -0.020850904 -0.033486385 0.0071817897 -0.01636123 0.025459677 -0.026746623 -0.033750437 -0.004383702 -0.03508577 0.0065301247 -0.03102753 0.0068344846 0.0036858171 0.010530103 -0.0074750707 0.0019018352 0.035838224 0.032165542 0.028031461 -0.0060325153 -0.016615476 0.013501357 -0.030735914 -0.03908773 0.018994711 -0.005133193 -0.036948208 0.033303685 -0.0072275735 -0.024812996 -0.00018908083 0.004565399 -0.017656552 0.020827692 -0.02841933 -0.006873291 0.0026671477 -0.03587362 0.0355108 -0.012375653 0.018972125 0.011436392 0.03331922 0.0032785684 -0.035780556 0.0063067973 -0.0005866103 0.023581631 -0.024536118 0.034194767 -0.01272667 -0.01707356 -0.03316044 -0.030858973 -0.006635111 -0.015877701 0.011685774 -0.010206062 0.016761389 -0.018450001 -0.028753616 -0.026221871 -0.036416642 0.0074004494 0.0129086 -0.006792523 0.03345585 -0.036250852 0.017185062 -0.016557734 0.012560081 0.0376546 -0.009498075 0.029013947 -0.03868774 0.014358547 0.017077602 0.018109731 -0.015070984 0.013657879 0.03195823 -0.033350132 0.033509843 0.008950535 0.009649746 0.031010449 0.02613324 -0.028630715 0.023673385 0.025724106 -0.026072845 0.016636785 -0.025553185 -0.018088158 -0.034015406 0.01322734 -0.016919477
RX_313663 0.03965553 0.021588504 -0.021740226 0.018638216 0.012257788 0.03210005 -0.020786405 0.01661833 0.03881084 0.01506697 -0.02034155 -0.00051410124 0.036615677 -0.01836978 0.004010681 -0.036662728 0.01988475 -0.009525025 -0.0005679317 0.0033426695 -0.012311608 0.0138533935 0.009015333 -0.03526744 0.015776485 0.027234666 -0.019152394 -0.014806785 0.009544827 0.026368111 0.03182187 0.03853757 -0.03151074 0.012716185 0.017202258 0.02663146 0.03055977 0.023156583 -0.0065962113 0.027796045 0.03015142 -0.03164652 -0.0014447831 -0.0034166798 0.018405426 -0.025276188 0.013588805 -0.032822315 0.03852039 0.035442255 -0.019810587 -0.002935566 0.00630448 -0.002815932 0.032294564 -0.019439662 0.008469652 0.03830304 -0.016812438 -0.008891638 0.02296248 -0.017940631 0.020802546 -0.026057467 0.0031999908 0.033226095 -0.01722647 -0.011500083 0.030817434 0.005420748 -0.023148937 -0.015948782 0.016670424 0.0044338405 0.0264595 0.013495937 0.03470595 -0.011210827 0.008470319 -0.014659325 0.032464586 -0.03330304 -0.027026474 -0.0032777637 -0.023929888 -0.004762493 0.03849218 -0.002031237 -0.0002142638 -0.008153487 -0.024134506 -0.0166973 -0.017911915 -0.025603523 -0.014283301 0.026325814 -0.017872123 0.014930669 0.031365238 -0.0007497668 0.022074018 0.038356125 -0.012039302 0.006376505 -0.014840726 0.0036503747 0.015111826 0.02155947 0.015256237 0.00035357103 -0.007694386 -0.02627356 0.033819675 0.0018864684 0.03873779 -0.03227634 -0.024010673 0.0011301078 -0.027819648 0.007848818 0.006648548 0.004359003 0.0010033511 -0.009071348 0.021758325 -0.022324145 0.01936451 0.0070032813 0.010692421 0.02617602 0.026761763 -0.0069533437 0.032461002 -0.010134123 0.0115606785 -0.0031417497 0.002615869 -0.021024615 -0.0102692265 -0.03405111 -0.01964744 0.019500233 -0.009783575 -0.03286259 0.029926427 -0.0047982857 -0.019718654 0.026276536 -0.015238013 -0.022404362 -0.0319104 0.03257162 0.034482837 -0.022999467 0.031238772 -0.03820436 0.013164323 -0.005950995 -0.002756562 -0.02941598 -0.03396802 0.0035973191 0.023783699 0.028811231 0.02411589 -0.02732024 -0.039393086 0.039685242 0.010564715 -0.037248574 -0.038177952 0.015088797 0.03214252 -0.0034211278 -0.02748079 0.010224402 0.036575608 0.002827581 0.034051135 0.029524557 0.03140405 -0.027766505 -0.038128275 0.02916573 -0.028807588 -0.0019147992 -0.026013847 -0.0084208995 -0.016674936 0.03568355 -0.021581868 -0.03321981 -0.006862439 0.005896475 -0.02959209 -0.0012496673 0.024958618 0.026740715 -0.012364026 0.00556447 -0.018916624 0.02173917 -0.0043700747 0.03069964 0.00093647465 0.016987626 -0.005869232 -0.022037122 -0.03721292 -0.01076097 -0.021924103 0.008334078 -0.010529449 0.0319874 0.0042208657 0.022149071 0.027806766 -0.0066981055 0.016963087 0.017129209 -0.0029963367 0.036045745 -0.02168209 -0.0183592 0.033115223 0.03087689 0.022836022 0.028429404 -0.0036751144 -0.03857775 0.019625582 0.019536108 -0.032274082 -0.020218901 0.010146063 -0.027377628 -0.030495852 0.0036993213 0.0056349337 0.030785397 -0.0014217757 -0.025049757 0.03355874 0.005195182 -0.03762172 0.038690954 -0.021232642 0.018689126 0.0037234277 -0.012176514 -0.0012227334 0.03720937 0.023062482 -0.0058542453 -0.03908823 -0.032682206 -0.012997886 0.029535182 0.008679729 0.035135336 -0.0054266974 -0.035116103 -0.037662253 0.036265492 0.019136336 0.0028309375 -0.019043932 0.036129966 -0.0010039173 0.011086322 0.011887848 0.009175811 -0.020318769 -0.0068214014 -0.035553955 0.03073588 -0.02085587 -0.019888142 -0.015222231 0.0019239895 0.025640555 -0.024280544 0.013140012 0.025803238 -0.037457224 0.032975756 -0.023675753 0.0049851947 -0.012306325 -0.0077816136 0.036779366 0.017645355 0.0178672 -0.020526739 -0.0040771887 -0.012301657 -0.02918927 -0.0019239299 0.026782036 0.004353255
RX_362 -0.024339829 -0.039586 0.013637915 -0.03533587 0.016109396 -0.023541924 0.0086630955 -0.030173013 -0.039306004 -0.028646711 0.0070440285 -0.009626733 0.02038031 -0.019286018 -0.034622744 -0.024141645 -0.0023259558 -0.025221687 0.012736458 -0.0020873845 -0.03686869 -0.01086963 -0.024943737 -0.031877212 -0.036292408 -0.016485471 0.026806101 0.010410517 -0.029370531 -0.00012825057 0.01101679 -0.03822635 -0.0010282099 -0.0051570944 -0.025026038 -0.022761045 -0.021765105 -0.015446326 0.039590813 -0.0222144 -0.022593347 0.018473398 -0.0043842383 -0.035153426 -0.025614984 0.01843698 0.03694514 0.022356153 -0.0017445274 0.006837506 -0.0225428 -0.037461396 0.034225956 -0.03164065 -0.004225705 0.00900257 -0.029731935 -0.012853054 0.009497765 0.03891764 0.009279791 0.01698291 -0.0039704926 0.011552703 0.033861727 0.028682366 0.011369746 -0.009035129 0.0029762462 -0.0167932 -0.00171756 -0.02245298 -0.023065636 0.02729749 -0.0022755936 0.001080703 -0.036842894 -0.0011708327 0.017012507 0.03165114 0.020285197 -0.018796066 0.020779204 -0.025541786 0.025591686 0.016895596 0.022953577 -0.014544874 -0.02961143 0.030664347 0.013699658 -0.008240715 0.017924022 -0.015124919 0.022863708 0.03325531 -0.018312264 0.0053719506 0.03185431 -0.036372736 -0.001813814 0.007991858 -0.0030718446 -0.0010736585 -0.02348619 -0.0087873805 0.029648475 -0.024007816 0.020463705 -0.028917369 -0.02248652 0.032851763 -0.025151215 0.039105825 0.019349482 0.023823842 0.036061898 0.038847685 0.029825516 -0.0060720555 -0.024378035 -0.029419417 0.00949762 -0.00066464767 -0.0330988 -0.037199914 0.012552328 0.023678876 0.034610137 -0.023370251 0.004470475 0.0053102337 -0.010133734 -0.03318109 0.031559393 0.007101137 0.0019768737 0.025024056 -0.0114531405 0.0024331287 -0.032665484 -0.039606735 -0.039402116 0.031441994 0.0010897368 0.03560414 0.012416076 0.01993585 0.004000675 -0.032513194 -0.0043443628 0.023090646 -0.010914311 -0.016201155 0.016390793 -0.023163777 -0.0030716918 -0.03476164 0.034081608 -0.027277179 0.01627351 -0.024923831 0.009067293 0.02909334 -0.03967695 0.005730193 -0.021584425 -0.005396448 0.0021790639 0.0041721314 -0.034735113 -0.009128209 0.0023503602 -0.01615691 -0.003742583 -0.0042800643 -0.009452503 -0.034513626 -0.021521466 -0.0066317283 -0.039406445 0.0027597807 0.036968656 -0.029254794 0.015698288 -0.026228722 0.025289685 0.036285147 -0.035273757 -0.03516952 -0.010918375 -0.022892429 -0.027340166 0.0005913116 0.006584432 -0.0114482045 -0.009127399 -0.02954879 0.018586844 0.014506459 0.0067725033 0.017966934 -0.0026720054 0.030506827 -0.0024391636 0.028136812 -0.009666255 -0.016193464 0.02629625 0.0011345148 -0.0038236678 0.036513075 0.0285609 -0.025700428 0.032465957 -0.015902448 0.02298753 0.028017402 0.012048952 0.033953547 0.027317084 0.027925223 -0.037311085 0.014437161 0.02491337 -0.021864109 0.039466046 -0.014533944 -0.033611 -0.018084554 0.016387403 -0.038860574 0.035163052 0.03684693 0.01861959 0.016335037 -0.0076522157 -0.021713156 0.0043918677 0.038214073 0.018142644 -0.019681223 0.027089506 0.012505412 0.027856782 0.007018514 0.017790254 -0.0138075575 0.03579703 0.008201126 -0.024257047 -0.015306238 -0.0140577555 -0.03124284 0.018235773 -0.03631327 -0.0074790902 0.03629607 0.027547158 0.0067548864 0.037975147 0.008723587 0.027223885 -0.00056576356 -0.020570775 -0.022478532 -0.008365553 -0.039022494 -0.027452655 -0.01831831 -0.03765368 -0.001243975 0.0039725564 0.03270501 -0.00148803 -0.01713546 0.014395684 0.033124782 -0.018878931 0.028071411 0.0037237443 0.034055345 -0.024021532 -0.0358489 0.028458752 -5.96717e-05 -0.0073838383 -0.010710342 0.016003996 0.01615611 -0.03049685 -0.030487953 0.029160522 -0.019596694 0.015454192 0.018129963 0.03560178 -0.0032526962 0.025211155 0.01025125
RX_93263 0.027371198 -0.006130174 0.033872686 0.027069964 -0.007250674 0.028366797 0.02693592 0.019531697 -0.0036723875 -0.033310242 -0.020198058 -0.026519671 0.025556684 0.0051333755 0.024267137 0.03932696 -0.026069123 0.03131417 -0.031101206 0.03427144 0.008063365 0.01350867 0.0083725415 0.018401481 0.022442807 0.023356162 0.0076861233 0.019711263 -0.028385013 0.01900936 0.033032984 -0.021019373 0.021403551 0.0050783604 -0.011558395 -0.024558535 -0.033211794 0.034217022 -0.013340566 -0.030793454 0.011588879 0.02296722 -0.0030503683 0.013132475 -0.02510655 -0.021874197 -0.01272078 0.024162084 -0.016823819 0.0047138147 0.0012161955 0.0063952357 -0.033476688 0.03495507 0.018172212 0.014681645 0.02783177 0.0019173473 -0.01248266 -0.018822618 -0.03892221 0.002041597 0.032071397 -0.034137428 0.0028799064 0.03536573 0.03866738 0.024710238 0.0036615655 -0.011113578 -0.018624138 -0.032732245 0.021687873 0.03417802 0.029668279 0.020182256 -0.036330752 0.037082493 -0.027398843 0.005514674 0.0066950843 -0.033634797 -0.033851083 0.016237132 0.038437188 0.03811127 0.005532466 0.00605195 -0.012818513 -0.001983583 0.019136 0.010511726 -0.021746917 -0.030334821 0.018860307 -0.017739346 -0.02741756 0.01988976 0.010447912 -0.016405795 -0.038289346 -0.03531671 0.03275168 0.0058386736 0.03906901 0.010945924 -0.02033711 -0.012264762 0.0077975877 0.014056545 -0.008943835 0.0011574104 -0.035902433 -0.031919174 -0.0064705014 0.021545172 -0.0023562983 0.03766156 -0.0008870475 -0.03744618 -0.0043399744 -0.029139435 0.027991608 -0.008065723 -0.003225796 -0.005252011 -0.01324968 -0.009757033 0.032675713 -0.016354164 -0.033865083 0.002174113 0.029579759 -0.0094139725 0.0048020184 -0.0044446886 0.02639927 0.015225079 0.03145217 -0.0006658733 0.025714338 0.0254277 0.02731508 0.014447413 -0.00548815 0.023787618 0.022836573 0.029979378 -0.02918176 0.009572089 0.039020732 0.0104435645 0.0027281418 -0.0299915 -0.017269544 -0.005739536 0.028916053 -0.017082335 -0.03798872 0.012289386 -0.0005023256 -0.012982937 -0.032690834 -0.023787929 -0.031010788 -0.009783741 -0.007176224 -0.017949654 0.0074654073 -0.0075709186 0.031962693 0.022075858 0.03589713 -0.03450845 -0.004703164 -0.020412976 -0.01623708 -0.0037539788 -0.036485855 -0.034733675 0.030622512 -0.011190027 -0.003153529 0.036603175 -0.011629447 0.0038212128 0.010444384 0.020429973 -0.03603916 -0.028586522 0.0396778 -0.0010882728 0.030046873 -0.018560993 -0.018943531 0.012493834 0.025523998 -0.009255983 -0.020764286 0.006376043 0.0142448135 -0.032520466 0.023454107 0.0053570457 -0.010633983 0.034541994 -0.015241591 0.01452443 0.006546963 -0.010317352 -0.014751459 -0.006714411 0.004556 0.0057158284 0.037913084 0.027424209 0.032736078 -0.01665234 -0.037392143 -0.0091428645 -0.011237996 -0.029221257 -0.02778723 0.038370147 0.035435095 -0.020697009 -0.035792835 -0.018265655 0.026763298 0.008107297 0.019287989 0.022183768 0.009779029 0.020714238 -0.02415952 -0.00039241463 -0.021788284 -0.014857767 0.01110233 0.029307313 -0.0037734285 0.0106173195 0.011586767 0.03748957 0.0239494 0.035303928 0.009315621 0.021082893 -0.033798594 -0.007710807 0.036506884 0.020471543 -0.01998399 -0.022414545 0.0019077286 -0.03073782 -0.023768403 0.032646656 0.034854084 -0.031669587 0.016058959 -0.012532888 -0.0016921721 -0.036659963 0.03729538 -0.019832648 0.0067708045 -0.0043755993 0.0023360178 -0.022632655 -0.0037561879 0.0052804053 0.02799403 -0.016703317 -0.020892255 0.031230032 -0.021171108 -0.024333801 0.021620374 -0.039538197 -0.017569631 0.012702007 -0.014231447 0.03724356 0.014326565 0.03879085 0.0031533502 -0.009968653 -0.012741618 0.012066845 0.019114152 0.03107524 0.035249814 0.03078527 0.008491512 0.028330602 0.03568241 0.0093389675 0.00031478703 -0.032571107
RX_187832 -0.010283882 0.009961028 -0.030487612 -0.03784365 0.03616768 -0.033336937 0.0092631765 -0.023537783 -0.024772316 0.02320566 0.028569788 0.0014744736 -0.022349594 -0.02463317 -0.00196575 -0.019710423 -0.024208173 0.0060912482 0.021409959 0.035608955 -0.005864106 0.03272306 0.034134626 -0.023424655 -0.009598732 0.012058914 -0.00903845 0.0035932474 -0.026712012 0.034980275 0.020402007 -0.03764953 -0.0013380796 -0.013907051 -0.0033653043 -0.009397412 0.027387403 -0.039196327 -0.019474365 0.02930639 -0.013496159 0.033754364 -0.004783746 0.01298723 -0.017451053 -0.0009766929 -0.01886303 -0.007219646 0.012631867 0.03884446 0.01866522 -0.023280345 0.015351169 -0.021343805 -0.03833964 0.0044285767 0.028755106 -0.0051323995 0.031310767 -0.017945366 -0.031680193 0.01412246 -0.010411914 0.023915477 -0.025695037 0.03780412 -0.036917422 0.03189806 -0.02781102 -0.009324122 0.0013950504 0.0077291057 0.016620103 -0.018432148 0.03151588 0.0347177 0.0017276444 0.034155883 -0.030987633 0.02970542 0.03399729 0.021390077 0.02558674 0.033100262 0.0100998655 -0.0018636622 0.001544904 0.015457638 0.007530313 -0.015660807 0.011391588 -0.009580474 0.02969928 -0.038824536 0.039087377 0.03869324 -0.019490205 0.0012655966 -0.009414541 -0.03140536 0.025300607 0.034201704 0.018527262 -0.006935656 -0.011942776 -0.02301225 -0.027398787 -0.024302263 -0.028159965 -0.02672949 0.013522435 -0.010958323 0.0061583854 0.0342455 0.033533 0.013555877 -0.030101927 -0.008964961 0.028384998 -0.012643222 -0.01393147 -0.015870087 -0.012497447 0.012057394 0.0068919063 -0.012931524 -0.0013722628 -0.014402168 0.005078044 -0.038909096 0.01789435 -0.03496892 0.02817589 -0.036971238 -0.013110232 0.011121079 -0.024982084 -0.0042070188 0.029712833 0.028464861 0.013221696 0.03139565 0.039683454 0.029691257 0.022509761 -0.014538048 -0.029893383 0.029552259 -0.03548345 0.012106992 -0.017074788 0.03175579 -0.028772878 -0.031891406 0.014243141 0.0137553215 -0.025706165 0.033687472 0.015001193 -0.0062774457 0.005853068 -0.035154477 0.036718838 0.015580222 0.022797741 -0.03535137 -0.016342858 -0.023076458 0.030857988 0.018842861 -0.006511774 0.008890491 -0.029900458 -0.03935063 -0.015783265 -0.014028214 -0.032462038 0.0053377897 0.023361199 0.02032623 -0.025099296 -0.027298283 -0.030065723 -0.021931287 0.010609869 0.038584173 0.024668694 -0.031151652 0.037103474 -0.039244223 0.005449213 -0.019114947 -0.011279764 -0.018772248 0.006953638 0.008137848 0.010217451 0.030353293 0.021763045 -0.01686595 -0.0027529933 -0.019305497 0.0142174065 0.01227181 0.012232404 0.021711197 -0.02652087 0.018137768 -0.038808983 -0.011182494 -0.033449586 0.03053511 0.007917367 0.00088982657 -0.027320566 -0.015380556 -0.037603773 0.023709267 -0.03720132 -0.03686736 0.028497197 -0.009425098 0.029280715 -0.014961315 0.0018904358 -0.03657142 -0.0017473511 0.034612037 0.03182739 -0.013642287 -0.026873648 -0.03752432 0.005371541 -0.014579961 -0.004532121 -0.010964278 0.01817973 -0.0135990605 0.017214365 0.039068587 0.038448326 -0.038751666 0.011057097 0.025498167 0.016663816 -0.0018736795 0.03540504 -0.023161981 -0.02529971 0.013190679 0.03529396 -0.025286812 0.02402088 0.0009367578 -0.016329322 0.012049839 -0.010720197 -0.026952218 -0.019814294 -0.013158565 0.021319278 0.020278119 0.0156168975 -0.00976214 -0.03960996 -0.02588033 -0.031557005 -0.014905898 -0.018657992 0.024538659 -0.03820436 0.024409331 0.023884386 -0.033732228 -0.011245269 0.030183032 0.029399559 -0.039431483 0.023550771 0.03628198 -0.03007973 0.013544343 -0.019783357 -0.01687254 0.033088118 0.0032745935 0.032408535 -0.038571868 -0.024037013 -0.01777788 0.010938045 0.002676189 0.022075381 -0.009365102 -0.014720978 0.0046602823 0.034161955 -0.02328676 0.024723567 -0.013748091
RX_1665059 -0.013762537 0.015640318 0.012807142 0.005851902 0.017242506 0.017133214 -0.019837894 -0.007815544 0.020693075 0.031117588 0.018504694 0.030113488 -0.022836026 -0.009106534 -0.037552983 -0.008078739 0.024988934 -0.02968977 -0.019423453 -0.0038767196 -0.038500775 -0.026510485 0.02317033 0.030540124 0.039201394 -0.02248347 -0.0007283464 -0.0077128597 -0.016191186 0.00094500557 0.03368763 0.01522436 -0.0028536618 -0.0025444105 -0.009450991 0.03945843 -0.029922526 -0.014943296 -0.0122768115 -0.022668678 0.01605706 -0.011444636 0.03925632 -0.0029689036 -0.026668321 -0.035035633 -0.021055212 -0.0058108307 -0.033648588 -0.01429203 0.03357573 0.03503252 -0.009979559 0.027086206 -0.023633186 0.017582916 0.020862874 0.032754593 -0.029508749 0.03615705 -0.03853987 0.026126087 0.0009142719 -0.0019748583 0.008842401 -0.022995507 -0.028364094 -0.015125161 -0.00068375096 -0.0053585432 0.01092254 -0.023972793 -0.017616263 0.018605176 -0.0052627027 -0.02212151 -0.021411497 -0.021044789 -0.035033766 -0.029164761 0.017143458 0.0027347654 0.018957011 -0.010520846 0.008634504 0.017084662 0.011961181 -0.025099806 -0.029672034 -0.023572735 0.0002834201 0.036989063 -0.019319428 -0.02344547 0.027770743 -0.026350718 -0.03793624 0.0041297376 -0.00836822 0.008904468 -0.030148195 -0.004331153 -0.037546452 0.0016517565 -0.03485824 0.035849616 0.012932286 0.0031494014 -0.020899158 -0.0030604303 -0.036678802 -0.0287986 0.02443409 -0.003990762 0.022439629 0.021825265 -0.038256627 -0.009815406 0.031919435 -0.032511085 -0.036318775 -0.003951069 -0.028490044 0.027099892 -0.001596462 -0.03927413 -0.004669316 -0.0023429394 0.031181663 -0.039472762 0.028517626 -0.028186228 -0.013720812 0.0054096617 -0.026676718 0.02947618 -0.0014856942 0.022033762 0.03159421 -0.013114842 0.009163637 0.010081913 0.025839955 -0.009076916 -0.00043081865 -0.028799798 -0.021116316 0.019770272 0.026203193 -0.026915729 0.024026878 0.027869798 -0.030503467 -0.007681653 0.0073785335 0.02867011 -0.018946474 0.010907318 0.033560395 -0.028546441 0.004314352 0.029571302 0.0065231435 0.008242261 -0.008755626 0.021508388 0.016314551 0.010521874 0.027696244 -0.019059459 0.019374952 0.039379835 -0.02844739 0.0064845346 0.0044523478 -0.007973146 -0.0022062846 -0.031686794 -0.014614971 -0.024823572 -0.0064509585 0.01752866 0.025280334 0.0205197 -0.011815192 0.008674972 0.02740068 -0.030080155 0.008638281 -0.017585313 -0.035025995 0.017885022 0.022846356 -0.038069975 -0.0023783967 0.014628034 0.02874858 0.026309825 0.024588302 -0.010386391 -0.01659858 -0.015166178 -0.033721477 -0.021203076 0.019061103 0.012200423 -0.033573125 -0.007188242 -0.0010407865 -0.028178837 0.019649211 -0.032493245 -1.3068318e-05 -0.03751817 0.03667341 0.0057346337 0.034735195 -0.031854883 0.027885817 0.026581228 -0.018797057 0.0047991127 -0.00785863 0.038584247 0.022757635 -0.02260215 0.012147874 -0.037875626 -0.014148407 0.0069996566 -0.00055997446 0.033721328 -0.022796022 0.0072338246 0.022198614 0.012217741 0.0380769 -0.011177117 -0.016408388 0.02394054 0.019322459 -0.03315381 0.00021458417 -0.001037214 -0.0045739487 -0.022873448 -0.020062217 0.017633945 -0.010885378 0.03888207 0.029590987 0.011614922 -0.012090966 -0.022162778 0.01903069 -0.032337237 -0.017052382 0.0061919093 -0.018549796 0.020253181 -0.024968423 -0.03375262 0.023778446 0.02868133 -0.0034153238 0.03040842 0.023133062 -0.000984937 -0.015174868 -0.025517166 -0.017928664 -0.000545945 0.024600297 0.00071009994 0.028146014 0.02109462 -0.011909325 -0.03755798 0.0021262802 -0.019808115 -0.038992487 0.01866065 -0.00063376874 -0.033903953 -0.022013882 0.0160168 0.009541795 0.017163329 -0.028667506 -0.02804958 -0.012221394 0.027225882 -0.03785931 -0.025860388 -0.014233882 -0.03547781 0.0128933005 0.02034454 -0.038071174 0.0027947575
RX_69120 0.019079126 -0.006648414 0.00933288 0.024399288 -0.010853903 -0.034475006 -0.008370362 -0.006218765 0.023060746 0.005799342 -0.024228457 -0.014332669 -0.0155716445 0.008750476 0.020968676 -0.037542135 -0.03455567 0.014357869 0.020802088 -0.0017289743 -0.014261747 -0.028179254 0.03647306 0.008001521 -0.037072115 -0.0081006475 0.012620762 0.0010594539 0.023324482 0.021236837 0.038196802 0.034154274 0.012928341 -0.011084609 0.0278719 0.026187226 0.02296251 0.0056241453 0.022279799 0.01752929 -0.0237375 -0.015157213 -0.037095897 -0.022486355 -0.010181973 0.013185553 0.020004962 0.038787335 0.027775727 -0.0094590075 -0.034682333 0.03667993 -0.010315679 -0.011742007 -0.033501413 -0.0077152923 0.03427594 -0.0339829 -0.015079329 0.03535439 0.036403716 0.029606126 -0.0030402355 0.015458535 0.0057570487 -0.005257707 -0.0203133 -0.023797542 0.0028740205 -0.021429786 0.033529952 0.019664865 -0.02781971 -0.023135064 -0.0073969886 -0.030552875 -0.015141588 -0.00935966 0.024509355 0.02110264 0.02110159 -0.023500863 -0.033666607 -0.021777278 0.015354056 0.015721034 0.014961172 -0.0292724 -0.017929815 -0.017358376 -0.01614525 -0.03803259 0.018163651 -0.021834917 -0.028685581 0.017877638 0.0026164688 -0.015400926 0.019293416 0.020802174 -0.030944735 -0.0043585934 -0.010602564 -0.036538195 -0.024737917 -0.03514981 -0.02702697 0.01398503 0.020134918 0.0054314323 0.027519733 -0.0051565394 -0.03561869 -0.01639957 0.033067353 -0.0005895905 0.037883274 0.00899281 0.0035579614 -0.01678334 -0.013615038 0.020260375 0.0072463863 -0.0366524 -0.00922339 -0.012061367 -0.037166305 0.007646892 0.036439843 0.008465212 -0.020800017 -0.021064594 -0.028483808 0.014358066 0.014625885 0.030941814 -0.012901468 -0.02182055 0.03832616 -0.01911905 -0.026093401 0.0029975884 0.004113771 -0.019427462 0.035760283 -0.031709045 0.031591736 -0.016232802 0.036317587 0.0101211555 -0.03471191 0.01868245 -0.013176996 -0.01285377 -0.0014354438 -0.011286605 0.018427253 -0.0040061846 -0.0027706586 -0.021792293 -0.02838447 0.006780416 0.01095264 -0.016192144 -0.019396052 0.034364216 0.012254745 -0.01621273 -0.03226521 -0.008945787 0.0027167052 -0.034388557 -0.036326356 -0.01870488 0.016401384 0.008334141 -0.03115706 -0.03617046 0.03425654 0.022478785 0.018138919 0.032818265 -0.020227086 0.0142825395 0.019044876 -0.037771717 -0.008036647 -0.01681981 -0.0093931 0.011259511 0.002423685 -0.0071671307 -0.018054262 -0.018989358 0.01473733 -0.02792455 0.009555388 -0.022839267 0.010384757 -0.024339179 0.03431619 0.038445838 -0.006018799 -0.026257493 0.023707576 -0.003257852 -0.002831038 -0.03490423 0.02850663 -0.00472806 0.009464402 0.013540465 0.015933122 -0.007031016 0.03656046 -0.036809288 0.03159526 0.0270975 -0.023187952 -0.013796382 -0.006462913 -0.016247196 -0.008047286 -0.03661807 0.019678839 0.018897537 0.027243093 0.0063539334 -0.012176054 0.03935442 -0.005846042 -0.014382964 -0.007257372 0.039250188 0.029015899 0.039649203 -0.009828465 0.019082483 -0.015593236 -0.039144974 0.023455702 0.028088853 -0.0028754883 -0.0033742487 0.0023842193 -0.017183978 -0.028459493 0.02721183 0.0335375 -0.02083849 -0.011041548 0.036360018 -0.0063710734 0.036770597 0.015335858 -0.02442663 0.019624226 0.0077161677 -0.008471627 0.0037275031 0.034254447 -0.030082397 0.01554298 0.019758634 -0.034428235 -0.004494965 0.012321763 0.009663962 0.021388926 -0.004124537 -0.036657784 -0.010681549 0.03961461 0.037116036 0.0051532798 0.017241314 0.028060898 -0.032038923 0.017484397 0.017334454 -0.013405526 0.005167708 0.025493644 -0.032696977 -0.014188675 -0.015868807 0.013335809 -0.020124916 0.0054639727 0.0121435225 0.033524387 -0.02730591 -0.00023885444 0.026529916 -0.020448403 0.00787124 0.009504609 0.03455478 -0.035024263 0.0047186166
RX_72625 -0.003915213 0.017743628 0.024377309 0.00097494945 -0.015583755 -0.0018591657 0.03927519 -0.027439032 -0.036198605 -0.00076249614 -0.035919532 -0.013386594 -0.008039568 0.03126423 -0.008006398 0.033879817 0.0021306053 0.029684708 0.029382825 0.03380847 0.019734573 -0.005683683 0.03656634 -0.0117464755 0.024274461 0.03506589 -0.0067435503 0.025587797 -0.0071829073 0.0071300194 0.005786609 0.017193351 -0.009636972 0.016186494 -0.00077961385 -0.032021362 0.033759393 0.01377615 -0.00024544075 -0.017361725 -0.03502415 0.019942783 -0.033586167 0.03764484 -0.005684443 -0.0062666982 0.027086392 -0.03634379 0.010452516 -0.013462968 0.00311888 -0.023109052 0.022379037 -0.0022498071 -0.0118290745 0.0118572 -0.005565375 0.02222373 -0.020774972 -0.032943748 0.006297756 0.025742888 -0.006825205 0.00806649 -0.032909643 -0.015746577 -0.004580397 0.032060236 0.029382013 -0.0049944483 0.035630904 0.039642163 0.020109035 -0.02571857 -0.03139779 0.024519682 0.0025816262 0.023733892 0.017677266 0.028870888 0.017747633 0.0111146495 -0.011494737 -0.021356994 0.03389439 0.0043836646 -0.0067298785 0.012961127 0.030716158 0.023054555 0.016422555 -0.029364582 0.027685814 0.03589061 -0.0015452243 0.016202074 0.029322214 0.010936979 0.0051115192 -0.015962875 -0.020947918 0.005461246 -0.018274989 -0.003173381 -0.03502516 0.033506937 0.03498099 0.038240194 -0.017021503 0.03260137 -0.006058935 0.01335939 -0.03667439 0.0013973229 0.018974163 -0.021832889 -0.034395363 -0.030651562 -0.0055690445 -0.024092317 0.008581527 0.010168713 0.015437327 -0.023914687 -0.034858968 0.012076933 0.037623174 -0.030329973 0.003256876 0.0047461987 0.034084402 0.0008966848 0.014629293 0.00747836 0.022113465 -0.038249034 0.035953358 0.006800987 -0.02397572 0.0036584064 0.036160372 0.024713323 0.025964133 0.02109661 -0.020378226 0.004586011 -0.02227621 -0.008642938 0.023339354 -0.026047245 0.012019586 0.0008854978 0.032834932 -0.036004964 -0.031235727 0.033815235 -0.012413308 -0.036290843 0.012149923 0.004853215 0.028461777 0.0031292737 -0.012441281 0.017198741 -0.023964234 -0.015917107 0.00886203 -0.0026051924 0.027333833 -0.034888685 -0.0044318326 0.039348073 0.012282629 0.022673167 -0.0294321 0.010093309 -0.018338012 0.028024726 -0.035904277 -0.013752226 0.028339788 0.02704914 0.015769042 0.010983601 -0.013723163 0.03758704 0.034697004 -0.035384238 0.038669035 0.035465114 0.0072772875 0.02211364 -0.022808952 -0.035542585 -0.036066867 0.0077536926 0.0026623718 -0.015836565 0.01641953 0.0055081323 0.016564809 0.0067350604 0.01556655 -0.03666455 0.021546673 -0.01941764 0.0119943805 -0.0067720152 0.0036216527 -0.033459328 -0.022302203 0.026265383 -0.0069372244 0.01125126 0.013327584 0.022682413 -0.009146446 -0.02275142 0.008247156 0.022798024 0.037406497 -0.0016175173 -0.0034100525 -0.03601018 -0.0022509657 0.020545937 0.038536675 0.0271537 0.039401464 0.03543964 -0.038873654 -0.012247406 -0.008369178 -0.035209656 -0.0227075 0.0092183575 0.0011586174 0.02941227 -0.0382257 0.008047223 0.011438519 0.038791426 0.032099873 0.022842623 -0.011364989 -0.0181864 0.038084835 0.03543316 0.008384444 -0.0008479133 0.028119877 0.0015077442 -0.012760855 0.011102919 0.0021913312 0.029802531 0.030937023 0.00062415004 0.028803788 -0.024727132 0.0026792586 -0.008021049 -0.023269176 -0.01598548 0.025491431 0.019653458 -0.026592515 0.020604137 -0.012356482 -0.02791994 0.010408133 0.02803807 0.015969478 -0.009025335 -0.0110091735 0.035131976 0.015745416 0.033835903 -8.857995e-05 0.020254344 -0.01947 0.022939637 0.028239056 0.013590086 -0.0042762794 0.023815006 0.026894815 0.011777144 0.014333747 0.037680008 -0.027242362 -0.011105888 -0.019730324 -0.0022141337 0.00087352097 -0.0065497085 0.0032189228 -0.011415536 0.0076701455 -0.022280132
RX_XXXXX2 -0.030098315 -0.026311062 0.036038183 -0.011568615 -0.018499041 -0.012751412 0.0047826245 0.011683933 -0.02129413 0.038693927 0.00520204 -0.021407519 -0.025670283 -0.020379601 -0.021401111 -0.03531546 0.012654852 -0.009222617 0.0025552846 -0.021196045 -0.016411463 -0.0112987105 -0.0009953901 -0.007875241 0.03730587 0.0072890185 0.030579932 0.004673075 -0.013564074 -0.0060990155 0.022686847 -0.011180945 -0.03430779 0.031617 -0.036529176 0.005930312 0.007618841 0.0012532957 0.0147132315 -0.013662368 -0.033803146 -0.005653415 0.019467782 -0.0049803443 -0.032334693 -0.027384065 0.038999848 0.009617545 -0.033695765 -0.0048285984 -0.009719269 -0.037230995 0.03711716 -0.03410288 -0.0323681 0.02289676 0.017120875 -0.033058647 -0.006875731 0.01590896 0.021857806 0.018725611 0.037279047 0.004308317 0.013933744 -0.012443788 0.015355729 0.027866602 -0.013017733 -0.027633306 0.03339646 -0.012270931 -0.007177461 -0.0023223013 -0.03197545 0.01690885 0.03689675 -0.016373264 -0.033827133 -0.03445178 -0.031341836 -0.007496886 -0.023537394 -0.036226638 -0.02241697 -0.034794524 0.031996973 0.02851431 0.03586963 -0.0072117858 0.029381283 0.026025787 0.007897016 0.018418107 0.016591296 -0.011874409 -0.03967736 -0.019830776 -0.02626801 -0.017932028 0.0028313436 -0.0020294972 0.018331572 -0.038630277 0.00062877685 0.024314068 -0.0039374456 0.0066611096 0.017487325 0.013658024 0.019722354 0.027597636 0.0026152171 0.028353982 -0.037032776 4.370883e-05 0.0038392767 0.02956073 -0.020788603 0.035514504 0.011519223 -0.012237508 0.011104401 -0.031033803 0.023895249 -0.007763304 -0.009459861 -0.009319242 0.032366842 0.0035973229 -0.032051228 0.0004033707 0.018860627 -0.030644985 0.015678193 0.02866675 0.027654007 -0.016008634 0.009829663 0.01906563 0.014518399 -0.018744567 -0.0310524 -0.0017108917 0.0009559691 0.03500542 0.008980464 -0.033026893 0.029391296 0.018871307 -0.034878388 -0.016739417 -0.017223092 -0.02998826 -0.020889781 0.033422045 -0.035590358 -0.012520257 0.03163404 0.028983526 0.031379588 -0.012079354 0.011614688 -0.02920909 -0.030510677 -0.03470577 -0.012301056 -0.022634428 -0.022957612 0.014627561 0.005014781 0.005262878 0.0030137077 0.024928614 0.031076096 0.023797467 0.024925925 -0.030640142 0.01575828 0.037979245 0.030865625 -0.029503752 -0.03245072 0.01667383 0.03821513 0.0019482113 -0.034600373 -0.0054789893 -0.034550294 -0.03622939 0.016798 0.0020207092 0.017303642 0.0042863227 0.025761895 0.036776714 0.011979695 -0.033753082 -0.033390194 -0.03268953 0.00836188 0.034955867 0.038055293 -0.014102722 0.02281192 0.0310461 -0.023430478 0.025063127 -0.021554746 0.029170103 -0.03218737 0.023753978 -0.0034633353 -0.011804864 -0.026042849 0.0034302361 -0.01407343 -0.012195542 -0.011218512 -0.023438945 0.0032126307 -0.02144621 -0.0050022863 -0.01695666 0.0013844296 0.0010527149 -0.033034105 0.0063133314 -0.029884536 0.029371776 0.026539594 -0.015484454 -0.0043375567 -0.013261573 0.016559951 0.0058364607 -0.015050037 0.003716454 0.00522108 0.024387576 -0.008698659 -0.0031972677 -0.003722079 0.019216511 -0.019401742 -0.0020422153 -0.02318198 -0.019206645 0.026358977 -0.01008877 -0.0327607 0.034166344 0.011439092 0.0374147 -0.0136681385 0.016946912 -0.0005105287 -0.031670533 -0.004190702 -0.035510324 -0.008024707 -0.023478413 -0.02519422 0.023642197 -0.012729801 -0.01848785 -0.02503523 0.02803924 -0.020170607 -0.025274701 -0.019935656 0.035286598 -0.004964981 -0.002618257 0.010631293 0.03923036 -0.023920918 0.005910475 -0.024063988 -0.026394382 -0.02709285 0.0033123642 0.022006385 0.021111112 -0.017703013 -0.010547113 0.019803107 -0.028209403 0.0063904673 -0.011953929 0.0022503957 -0.020556046 0.022879533 0.022165649 0.026070826 0.0041389316 0.006594952 0.00336916 -0.03693923 -0.0069222488
RX_591622 0.027785301 -0.032157816 -0.022169583 -0.025951374 -0.028277975 0.02461224 0.02584327 -0.029791772 0.03205178 0.007588174 0.009765752 0.020709142 -0.0057197325 -0.030261703 -0.013193637 -0.031194985 0.0075726435 0.008749168 -0.02925967 -0.030756898 0.02484303 0.027381264 -0.02825018 0.039495893 0.023705162 -0.00013816729 0.022040848 0.032346323 0.007885803 0.03357768 0.03415119 -0.016423179 0.015038557 -0.017469404 0.035019495 0.018822458 0.030764014 -0.029362801 0.039086275 -0.030467475 -0.035413384 0.0053147487 -0.012169525 0.025220133 0.01371469 -0.0066425093 0.023768842 0.009408016 0.010197442 0.023315482 0.039700374 0.007702455 0.018019661 0.022972196 -0.002340898 -0.020732565 -0.026891412 -0.00257089 0.02855388 0.003918119 0.0327437 0.0011137426 0.025336072 0.007537052 0.03423857 0.036092952 -0.03491206 -0.007532954 0.039188877 -0.03687904 0.035170227 0.030836523 -0.02934985 -0.03287648 0.02871932 -0.006236393 -0.033661153 0.032561764 -0.006408874 0.039184816 0.013833221 -0.03497413 0.036070764 -0.012999492 -0.025876697 -0.005455427 0.0010558441 -0.021018658 0.0077736303 -0.023659369 -0.0071642175 0.015969954 -0.029757548 -0.035025135 0.03656269 -0.027291033 0.019985221 0.014492802 0.028585099 0.019672543 -0.032559708 0.0016650222 0.010000426 0.032512315 -0.008802459 -0.018933566 -0.028589616 0.0289127 -0.017408477 0.0010200478 -0.014398741 -0.035726838 -0.036363933 -0.039511077 -0.026504315 0.004620582 0.022284526 0.026098922 0.012463726 -0.027230125 0.0031787753 -0.007384252 0.03533937 0.022761188 -0.0037201494 -0.00742463 -0.03333331 0.013077918 0.009399649 0.025771618 0.037748195 -0.0022100583 0.030026734 0.019650362 0.03243757 0.022177529 -0.028198402 0.006418206 0.0016537644 -0.002052389 0.0022649877 0.03409107 -0.0060084537 -0.0308119 -0.0059270337 0.008849587 0.033874497 -0.03362658 -0.021738918 -0.020693237 0.017998256 0.024915807 0.0056685507 -0.015869556 0.033984765 0.038779467 -0.032252003 0.03498181 0.0070242323 0.038285293 -0.02766935 -0.005215902 -0.01241794 -0.006311003 -0.01643113 0.013569709 0.012623046 0.004299283 -0.0017558895 0.010902178 -0.03926201 -0.029261325 -0.0282774 -0.023496352 0.032377914 0.00063103065 -0.037258364 0.008929398 -0.02924328 -0.01692528 -0.024852533 0.024045557 -0.0035999864 0.0060390644 -0.010996928 -0.0028254725 0.03935322 -0.033549044 0.036454536 0.021363307 -0.023046844 -0.036514293 0.03792672 -0.028183183 0.036349177 0.0063468926 0.026574709 0.0065408945 0.0017914101 0.0079677515 -0.03927005 -0.032353587 -0.038523335 -0.022978056 -0.008948283 -0.013281098 -0.021943232 0.0077149086 0.0030744337 0.009305455 -0.018016731 -0.036612548 -0.004708294 -0.024868628 0.026882648 0.0069198757 0.025135763 -0.0041180886 -0.021903606 -0.03266266 0.0013498701 0.016367361 0.034043007 -0.033473544 0.004867766 0.022189733 -0.0350709 -0.0343586 -0.018777208 0.012532301 -0.019561447 0.01885385 -0.0004914589 -0.00250718 -0.037127506 -0.027744548 0.038906775 -0.03807303 0.0068382025 -0.02116101 -0.012020819 0.020785905 0.00040384755 0.019122217 -0.027180629 0.021887127 -0.0012965873 -0.014289603 6.241724e-05 -0.037034854 -0.034105964 -0.0075370967 0.039348006 -0.03653775 -0.016387014 -0.017880714 -0.031153975 -0.014394984 0.016472694 -0.021626046 0.010849938 0.03798373 -0.008590426 0.039191358 -0.0043438375 -0.0367264 0.021089144 -0.0027027614 0.0018537454 -0.034536615 -0.01689 -0.0029256344 -0.029298637 0.015918061 -0.03202161 0.025398813 -0.022159012 -0.0020944998 -0.024638362 0.0050560683 -0.02580915 -0.0065716915 0.030052528 0.026271068 -0.017433641 -0.007322371 -0.037961353 -0.015457341 0.028733104 0.022355769 0.007332254 -0.010676537 0.0071160384 0.029893845 -0.004368242 -0.038241856 -0.001682315 -0.03789076 0.014018346 0.009805381
RX_XXXXX128 -0.013503829 0.03459771 0.013360359 0.03862811 -0.0027613826 0.017655704 0.0012513809 0.009304013 -0.010937773 0.03183706 0.028039537 0.0058508553 0.011737034 0.027721412 -0.03193611 -0.02315786 0.032448277 0.029302813 -0.028375149 0.0036884844 -0.027154066 -0.023488946 0.037973233 -0.019090528 0.01628061 0.0376297 -0.01738126 0.009582743 -0.029624104 0.0033729486 -0.0054451935 -0.029638276 0.01904273 -0.03190478 0.0012167133 -0.028847996 0.0038886406 -0.03501777 -0.022961065 0.03132683 -0.03918583 0.01748626 0.011535134 -0.03442353 0.0041888766 0.012227576 0.017152611 0.029910699 0.002479121 -0.03890107 -0.017742952 0.028034307 -0.024597388 0.0033891797 -0.03045906 0.023712121 -0.0050075687 0.009093095 0.023234315 -0.025324948 0.0023665987 0.014849804 -0.033051804 0.033142217 -0.02259799 -0.037527714 -0.03807211 -0.0063171275 -0.025566235 0.012072984 0.022240411 -0.037001006 -0.029604048 0.03743889 -0.018066173 0.03737455 0.029384024 -0.037123635 0.028674051 -0.016199345 -0.034490667 -0.028657898 -0.007457938 -0.030438412 0.028123133 0.016103577 0.023207925 -0.03249307 -0.011838092 -0.013152197 0.025427423 0.017357424 0.0039871596 0.021708552 -0.0069173053 0.0045679845 -0.035837654 0.021096673 0.013853811 -0.011085339 -0.011965359 -0.0021279417 -0.003393516 -0.032797016 -0.011134766 0.016759478 -0.012091493 -0.028197307 0.027680747 0.023313113 -0.00850993 0.019858863 0.019480783 -0.033088427 0.020546839 -0.0070293695 -0.012973787 0.012163326 0.037530772 -0.002196759 -0.0035435632 0.03232587 -0.027896766 0.0031334087 -0.039231867 -0.0016124807 -0.019482188 0.014020324 -0.027114466 0.020654384 -0.006388746 -0.028321758 0.03557232 -0.0028891303 0.021550626 -0.0026613548 -0.0072809868 -0.017922461 -0.03820327 0.02231628 0.0033765994 0.0030991212 -0.032163195 -0.002034042 0.00041064247 -0.020492483 0.038383745 -0.030395346 -0.0102391485 -0.02719425 -0.030861422 -0.013045158 -0.024453325 -0.026648853 0.018819641 0.038528956 -0.029501865 0.0044874772 0.019341856 0.0090288855 0.031095132 -0.01825744 -0.030179145 0.0057561025 -0.0067392513 -0.007248182 -0.027567105 0.020203825 -0.0013029613 -0.0145633165 0.0074116513 -0.03543343 -0.003468819 0.031195961 0.005036153 -0.023400065 0.02944474 -0.017467907 0.004869599 0.00012768432 -0.0030363873 0.020922184 -0.034119613 -0.031603903 0.012998205 0.03271515 0.012786228 -0.018223528 0.035943195 0.009580094 0.012772169 -0.034030814 0.013720129 -0.0062851906 -0.025737159 0.020001065 0.012770824 0.010283399 0.009918079 -0.022207417 0.008167405 -0.025031958 -0.02074758 -0.02130607 -0.013622018 -0.013086863 0.007265579 -0.028626792 -0.013206672 0.00747345 -0.007889062 0.015005149 -0.027341105 0.030076742 0.026276067 -0.0043199547 -0.007635761 0.0263251 0.023180597 -0.024661373 0.037508383 0.022138994 0.016148642 0.012387164 0.012926869 0.035869345 0.0011266842 0.03195394 -0.028395955 -0.02330774 -0.011188019 0.004806109 -0.039588567 -0.010446437 0.011675179 0.003133878 0.024208441 0.007941749 -0.030409116 0.033387907 -0.027748395 0.0061637275 0.026669487 0.031815365 -0.0039948933 0.01887538 0.021436468 0.00034465268 0.006882284 -0.008003153 -0.034060765 0.0101189315 -0.038143996 -0.017213568 0.015692491 -0.021355664 0.0007627383 -0.026978053 -0.026234612 -0.009411097 0.02881822 0.009119526 -0.023142328 -0.029161435 0.0380399 0.021994092 -0.028823342 0.0008388348 -0.008506637 -0.01656918 0.028135255 0.03179358 0.024213687 -0.003932029 0.0010781884 0.0044560023 0.032833777 4.7195703e-05 -0.011267984 -0.03688748 -0.024570778 -0.030103605 0.0049234144 -0.013304288 -0.0050441474 -0.0040789694 0.03424485 -0.008779492 0.037942432 -0.026937244 0.03093896 0.03267228 -0.031892996 0.033201113 -0.03391575 0.029672287 -0.020763671 0.032148868 0.033191636 -0.033688806
RX_232158 0.0053696297 0.011012249 -0.0295945 0.031261824 -0.03405167 0.005387876 0.0016251653 -0.03738877 0.019100036 -0.021575162 -0.020924635 0.032159552 -0.03695413 -0.0016216524 -0.016491234 -0.024001539 -0.027585521 -0.031163462 0.008667275 -0.013927765 0.018025458 0.023759983 -0.033881735 0.037133582 0.005606752 -0.018985061 0.031453818 0.001333408 0.013276596 -0.01607828 -0.022918615 0.008367613 0.012086365 0.034939617 -0.034384485 -0.038303446 0.019556887 0.035314664 -0.0049272515 0.013936516 0.019238994 0.027377136 0.029273555 -0.020204123 0.0332971 0.013746686 -0.039321214 -0.022591736 0.028697275 -0.036350507 -0.033509154 -0.0051070377 0.036103375 0.015058041 0.026429765 0.033695035 -0.030913979 0.009341065 0.028847888 -0.027769167 0.0184086 0.0031331293 -0.016673226 -0.0038517527 0.01350987 -0.008303579 0.006989546 0.022492386 0.017474461 0.0145628415 0.0015970469 -0.026481597 -0.019253638 -0.0073791146 0.011826951 -0.025624204 -0.024393875 0.014431741 -0.016707886 -0.003803227 0.016495544 -0.032600705 -0.006739773 -0.036808677 -0.0213847 -0.011892131 0.005908884 0.03106217 -0.026124615 -0.025865927 -0.01585474 -0.005529143 0.018832814 0.0036491193 0.024705686 -0.035484336 0.03186506 -0.022482574 0.010603901 -0.03574946 0.008398786 -0.00023360923 0.01730968 -0.024995223 -0.008036558 -0.025285453 0.027770601 -0.0085539855 -0.024983965 -0.03609435 0.038217485 0.03288185 0.0027160905 2.3916364e-06 -0.018506115 -0.0088277925 0.035003066 0.0070108324 0.012307182 -0.020145783 -0.0240393 0.028203957 -0.009408031 -0.028039115 0.0071652494 0.030290388 -0.026195087 -0.015746076 -0.014842639 0.0038500167 0.02550751 0.0035735779 0.028439917 -0.007883288 0.011790104 0.01748963 0.00021908805 0.03304605 0.004929237 -0.018246887 0.005712047 0.01761467 0.013904542 0.038255446 -0.0056442134 0.01976186 0.0139306635 0.002212491 -0.038225036 -0.015755016 -0.014478972 0.024510264 0.009878963 -0.026666887 0.029283427 -0.031234458 -0.0122774355 -7.57575e-05 0.019793902 0.0035964549 0.024321929 0.009263687 -0.02792599 0.02534429 0.033567704 0.029198527 -0.03776999 0.000545755 0.022934519 -0.026698261 -0.026729614 -0.018851455 -0.017349742 0.027343147 -0.037715532 0.032582425 0.02193943 -0.02992807 -0.031939052 -0.011985321 0.0034211203 0.0115754865 0.012051616 -0.0074459873 0.02828937 -0.016832456 0.01271683 -0.03263624 -0.020424457 -0.00054895505 -0.027466226 -0.027397072 -0.038291715 -0.038008954 -0.02026031 -0.018126983 -0.020134501 -0.015799427 -0.00060560927 -0.028734721 0.0021953583 0.00017144531 -0.015389208 -0.016310796 0.0046072043 -0.0049013533 0.01801376 0.035897613 0.0050220154 0.01856954 0.022767648 -0.0058355443 0.035416573 0.026673757 0.039280415 0.032229148 0.029744588 -0.018154318 0.004645597 0.019771181 -0.018483946 -0.018895695 0.034430124 -0.023824995 -0.026398763 -0.02762888 -0.012053411 0.024675734 -0.02756793 0.01834764 -0.03380745 0.02545859 -0.00080022216 0.0039364733 -0.023785204 0.033994257 0.004881922 -0.005763866 0.027553476 0.017579753 -0.0019143336 0.02168971 0.005168505 -0.036419533 -0.038254287 -0.018062374 -0.026043028 0.0084579885 7.4174255e-05 -0.022852765 0.028137468 0.032276668 0.029395021 0.021422923 0.008716926 -0.010420335 -0.0032979436 0.014611494 0.030834086 -0.014144251 0.00825325 0.0013177022 -0.024989717 0.020053882 -0.0077677593 -0.006473679 -0.0032879487 0.005404081 0.018357083 0.018166907 -0.018263703 0.02554024 -0.0068695806 -0.0028781258 -0.004543893 -0.02924718 -0.021062477 0.033072144 0.011183836 0.025893167 -0.0353466 0.008287668 -0.036347475 -0.017535312 -0.037796248 0.020004041 0.001053296 0.027812436 0.023234077 0.03041131 -0.011118563 -0.03902351 0.030016817 0.019589975 -0.013157064 0.0018742308 0.0072753206 0.004587304 0.00852187 0.0057085454
